%YAML:1.0
---
opencv_ml_svm:
   format: 3
   svmType: C_SVC
   kernel:
      type: RBF
      gamma: 1.
   C: 1.
   term_criteria: { iterations:100 }
   var_count: 256
   class_count: 3
   class_labels: !!opencv-matrix
      rows: 3
      cols: 1
      dt: i
      data: [ 0, 1, 2 ]
   sv_total: 494
   support_vectors:
      - [ 0.479968786, 0.0234131105, 0.00286160246, 0.00520291366,
          0.000520291389, 0., 0.00364203961, 0.00806451589,
          0.00234131119, 0.00104058278, 0., 0., 0.00234131119,
          0.000780437025, 0.0689386055, 0.0257544219, 0.0197710712,
          0.000260145694, 0.0018210198, 0., 0., 0., 0.00104058278, 0.,
          0.00286160246, 0., 0., 0., 0.00104058278, 0., 0.00676378794,
          0.000260145694, 0.0018210198, 0.00130072841, 0.000260145694,
          0.000260145694, 0., 0., 0., 0., 0.000520291389, 0.000260145694,
          0., 0., 0., 0., 0.0018210198, 0.000780437025, 0.00208116556,
          0., 0., 0., 0., 0., 0., 0., 0.00130072841, 0., 0., 0., 0., 0.,
          0.00156087405, 0.000260145694, 0.000520291389, 0., 0., 0., 0.,
          0., 0.000260145694, 0., 0., 0., 0., 0., 0., 0., 0.000260145694,
          0., 0., 0., 0., 0., 0., 0., 0., 0., 0., 0., 0., 0., 0., 0., 0.,
          0., 0.00260145683, 0.00130072841, 0., 0.000260145694, 0., 0.,
          0.000260145694, 0.000260145694, 0.000520291389, 0., 0., 0.,
          0.000780437025, 0., 0.00156087405, 0.000520291389,
          0.000520291389, 0., 0.000260145694, 0., 0., 0., 0., 0.,
          0.000520291389, 0., 0., 0., 0., 0., 0.00208116556, 0.,
          0.00338189397, 0.00572320493, 0.000520291389, 0.0117065553, 0.,
          0., 0.000520291389, 0.0106659727, 0., 0., 0., 0., 0.,
          0.000260145694, 0.00130072841, 0.0114464099, 0.00130072841, 0.,
          0.000260145694, 0.000260145694, 0., 0., 0.000520291389, 0., 0.,
          0., 0., 0., 0.000520291389, 0., 0.000520291389, 0.000520291389,
          0., 0., 0., 0., 0., 0., 0., 0., 0., 0., 0., 0., 0., 0., 0., 0.,
          0., 0., 0., 0., 0., 0., 0., 0., 0., 0., 0., 0., 0., 0., 0., 0.,
          0.0031217481, 0.00936524477, 0.000260145694, 0.0161290318, 0.,
          0., 0.00130072841, 0.0059833508, 0., 0., 0., 0.,
          0.000260145694, 0.000780437025, 0.0018210198, 0.00156087405,
          0.00104058278, 0., 0., 0., 0., 0., 0., 0., 0., 0., 0., 0., 0.,
          0., 0.00104058278, 0., 0.0283558797, 0.0798647255,
          0.0031217481, 0.0127471387, 0.000520291389, 0., 0.0031217481,
          0.00390218524, 0.00104058278, 0.00156087405, 0.000260145694,
          0., 0.00156087405, 0.000260145694, 0.0288761705, 0.0226326734,
          0.0117065553, 0.000780437025, 0.00156087405, 0., 0., 0.,
          0.00130072841, 0.000520291389, 0.000780437025, 0.,
          0.000260145694, 0., 0.0018210198, 0., 0.0150884492,
          0.00286160246 ]
      - [ 0.0572320484, 0.0593132153, 0.0018210198, 0.00286160246,
          0.000520291389, 0., 0.00338189397, 0.00780437049,
          0.00338189397, 0.00234131119, 0.000260145694, 0.,
          0.00286160246, 0.00364203961, 0.0301768985, 0.0442247652,
          0.06919875, 0.00260145683, 0.00234131119, 0., 0.000780437025,
          0., 0.00260145683, 0.000520291389, 0.00910509843,
          0.000260145694, 0.000260145694, 0., 0.0166493244,
          0.000520291389, 0.0775234103, 0.0031217481, 0.0031217481,
          0.00260145683, 0., 0.000260145694, 0., 0., 0.000520291389, 0.,
          0.000260145694, 0.000260145694, 0., 0., 0., 0., 0.00260145683,
          0.00260145683, 0.0140478667, 0.000780437025, 0.00104058278,
          0.000520291389, 0., 0., 0., 0., 0.00286160246, 0., 0., 0.,
          0.00494276779, 0.000260145694, 0.00962539017, 0.000520291389,
          0.0018210198, 0.000520291389, 0., 0., 0., 0., 0.000260145694,
          0., 0., 0., 0., 0., 0., 0.000260145694, 0., 0., 0.000780437025,
          0.000260145694, 0., 0., 0., 0., 0., 0., 0., 0., 0., 0., 0., 0.,
          0.000260145694, 0., 0.00520291366, 0.00390218524,
          0.000260145694, 0.000260145694, 0., 0., 0.000520291389,
          0.000520291389, 0., 0., 0., 0., 0., 0., 0.00234131119,
          0.00104058278, 0.0184703432, 0., 0.000260145694, 0.,
          0.000260145694, 0., 0., 0., 0.00416233111, 0., 0., 0.,
          0.00468262238, 0.000260145694, 0.00546305953, 0.000260145694,
          0.00416233111, 0.0062434962, 0.000260145694, 0.00338189397,
          0.000520291389, 0., 0., 0.00858480763, 0.000260145694, 0., 0.,
          0., 0., 0., 0.00130072841, 0.00650364207, 0.0031217481,
          0.000260145694, 0., 0., 0., 0., 0., 0., 0., 0., 0., 0., 0., 0.,
          0.00234131119, 0.00130072841, 0.000260145694, 0.000520291389,
          0., 0.000260145694, 0., 0., 0., 0.000520291389, 0., 0., 0., 0.,
          0., 0., 0., 0., 0.000260145694, 0., 0., 0., 0., 0., 0., 0., 0.,
          0., 0., 0.000520291389, 0., 0., 0.000260145694, 0.000520291389,
          0.00494276779, 0.00728407921, 0.000260145694, 0.00468262238,
          0., 0.000260145694, 0., 0.00260145683, 0.000780437025, 0., 0.,
          0., 0., 0.000520291389, 0.00260145683, 0.0031217481,
          0.0018210198, 0., 0., 0.000260145694, 0., 0., 0., 0.,
          0.000260145694, 0., 0., 0., 0., 0., 0.0031217481,
          0.000260145694, 0.0447450578, 0.0676378757, 0.00286160246,
          0.00754422462, 0., 0.000260145694, 0.00286160246,
          0.00650364207, 0.0031217481, 0.00286160246, 0., 0.000520291389,
          0.00338189397, 0.00390218524, 0.0296566077, 0.0439646207,
          0.0897502601, 0.00702393334, 0.0031217481, 0.000520291389, 0.,
          0., 0.0018210198, 0.00130072841, 0.0130072841, 0.00104058278,
          0.000260145694, 0.000260145694, 0.00858480763, 0.000780437025,
          0.0634755492, 0.0109261191 ]
      - [ 0.50988555, 0.00442247652, 0.00988553558, 0.00468262238,
          0.0059833508, 0.000520291389, 0.00442247652, 0.00390218524,
          0.00858480763, 0.000780437025, 0.00208116556, 0.00104058278,
          0.00286160246, 0.000520291389, 0.00832466222, 0.015608741,
          0.00286160246, 0.000260145694, 0.000260145694, 0.000780437025,
          0.000520291389, 0., 0.000260145694, 0., 0.00364203961,
          0.000260145694, 0.00104058278, 0.000260145694, 0.00390218524,
          0., 0.0124869924, 0.00520291366, 0.00988553558, 0.000260145694,
          0.000780437025, 0.000260145694, 0.000260145694, 0., 0.,
          0.000260145694, 0.00130072841, 0., 0.000780437025, 0.,
          0.000520291389, 0., 0.000520291389, 0.000520291389,
          0.00260145683, 0.000260145694, 0.000260145694, 0.000260145694,
          0.00104058278, 0., 0., 0.000520291389, 0.00962539017,
          0.000260145694, 0.00104058278, 0., 0.0148283038, 0.,
          0.00572320493, 0.0031217481, 0.00520291366, 0.00104058278,
          0.000520291389, 0.00104058278, 0.00130072841, 0.,
          0.000780437025, 0., 0.000520291389, 0., 0., 0., 0.000520291389,
          0., 0.000780437025, 0.000260145694, 0., 0., 0., 0., 0., 0., 0.,
          0., 0.00104058278, 0., 0., 0., 0.000260145694, 0.,
          0.000520291389, 0.000260145694, 0.00416233111, 0.,
          0.000260145694, 0., 0.000260145694, 0., 0., 0., 0.00104058278,
          0., 0.000260145694, 0., 0., 0., 0.000260145694, 0.000780437025,
          0.00520291366, 0., 0., 0.000780437025, 0.000520291389, 0., 0.,
          0.000260145694, 0.0171696153, 0., 0.00104058278,
          0.000780437025, 0.00390218524, 0.000260145694, 0.00260145683,
          0.00260145683, 0.0109261191, 0.00494276779, 0.00208116556,
          0.00988553558, 0.00104058278, 0., 0.000520291389, 0.0182101969,
          0.00104058278, 0.000780437025, 0.000260145694, 0.000260145694,
          0.000260145694, 0., 0.000260145694, 0.00676378794,
          0.000780437025, 0.000260145694, 0., 0., 0., 0., 0., 0.,
          0.000780437025, 0.000260145694, 0., 0.000260145694, 0., 0.,
          0.000260145694, 0.00234131119, 0.00208116556, 0.000260145694,
          0.00156087405, 0.00104058278, 0., 0., 0.000780437025,
          0.000260145694, 0.000260145694, 0., 0., 0., 0., 0., 0.,
          0.000260145694, 0.000520291389, 0.000260145694, 0.,
          0.000520291389, 0., 0., 0.000260145694, 0.000260145694,
          0.000260145694, 0.000260145694, 0.000520291389, 0.00494276779,
          0.000780437025, 0.00104058278, 0.000260145694, 0.00806451589,
          0.0031217481, 0.0059833508, 0.000260145694, 0.0187304895,
          0.000260145694, 0., 0., 0.00364203961, 0.000520291389,
          0.000520291389, 0., 0.000780437025, 0., 0., 0.00104058278,
          0.00208116556, 0.000260145694, 0.000260145694, 0.,
          0.000260145694, 0., 0., 0., 0.000780437025, 0., 0., 0.,
          0.00156087405, 0., 0.00130072841, 0., 0.00286160246,
          0.00962539017, 0.0169094689, 0.00208116556, 0.00676378794,
          0.000780437025, 0., 0.000260145694, 0.00234131119,
          0.000780437025, 0.000780437025, 0., 0.00130072841,
          0.000520291389, 0.000780437025, 0.00260145683, 0.00520291366,
          0.015608741, 0.00546305953, 0., 0.00260145683, 0.000780437025,
          0.000260145694, 0., 0.00286160246, 0.00520291366,
          0.00364203961, 0.00208116556, 0.00676378794, 0.00286160246,
          0.00390218524, 0.00546305953, 0.034599375 ]
      - [ 0.0260145683, 0.00910509843, 0.00364203961, 0.0104058273,
          0.00754422462, 0.000520291389, 0.0132674295, 0.0249739848,
          0.00156087405, 0.000260145694, 0.000260145694, 0.,
          0.00988553558, 0.000260145694, 0.0166493244, 0.0195109267,
          0.00676378794, 0.000520291389, 0.000260145694, 0.000520291389,
          0.000520291389, 0., 0.000780437025, 0.00104058278,
          0.00728407921, 0., 0., 0.000260145694, 0.0392819978,
          0.000260145694, 0.0392819978, 0.00936524477, 0.00338189397,
          0.000260145694, 0.000780437025, 0.00156087405, 0.00130072841,
          0., 0.00208116556, 0.00130072841, 0., 0., 0., 0.,
          0.000780437025, 0., 0.000780437025, 0.00104058278,
          0.0130072841, 0.000260145694, 0.000780437025, 0.00104058278,
          0.000520291389, 0., 0.00156087405, 0.00130072841, 0.0161290318,
          0.000260145694, 0.000260145694, 0.00156087405, 0.0411030166,
          0., 0.027835587, 0.00832466222, 0.0130072841, 0.00104058278,
          0.000520291389, 0.00130072841, 0.00104058278, 0.,
          0.000260145694, 0., 0.000520291389, 0., 0., 0., 0.000260145694,
          0., 0., 0.000520291389, 0.000520291389, 0., 0., 0., 0., 0., 0.,
          0., 0.00156087405, 0., 0., 0., 0.000260145694, 0., 0., 0.,
          0.015608741, 0.00104058278, 0.000260145694, 0.00208116556,
          0.000520291389, 0., 0.00130072841, 0.000780437025, 0., 0., 0.,
          0., 0.00104058278, 0., 0.000260145694, 0., 0.0215920918,
          0.000260145694, 0.00156087405, 0.000260145694, 0.000260145694,
          0., 0.00104058278, 0.000260145694, 0.0301768985, 0.,
          0.00104058278, 0.000780437025, 0.0101456819, 0.000260145694,
          0.00546305953, 0.00104058278, 0.00338189397, 0.00962539017, 0.,
          0.0140478667, 0.000520291389, 0.000260145694, 0.000260145694,
          0.0286160242, 0.000780437025, 0.000520291389, 0.,
          0.00104058278, 0.000260145694, 0.000520291389, 0.000520291389,
          0.0226326734, 0.00104058278, 0.000260145694, 0., 0., 0., 0.,
          0., 0., 0.00104058278, 0.000780437025, 0., 0.000780437025,
          0.00260145683, 0.00130072841, 0.00234131119, 0.0106659727, 0.,
          0., 0., 0.000780437025, 0., 0., 0., 0.00104058278, 0., 0., 0.,
          0., 0., 0.000260145694, 0., 0., 0.000260145694, 0.000260145694,
          0., 0.000260145694, 0., 0., 0., 0.00104058278, 0.000780437025,
          0.00104058278, 0., 0.000520291389, 0.00130072841,
          0.000780437025, 0.000780437025, 0.00832466222, 0.00910509843,
          0.0359001048, 0.000780437025, 0.0460457839, 0.000520291389, 0.,
          0.000260145694, 0.0059833508, 0.00130072841, 0.00338189397, 0.,
          0.00104058278, 0., 0.00130072841, 0.00130072841, 0.00780437049,
          0.000780437025, 0.000780437025, 0., 0., 0., 0., 0., 0.,
          0.00130072841, 0.0018210198, 0., 0.000260145694, 0.00156087405,
          0.000780437025, 0.000520291389, 0.00156087405, 0.018990634,
          0.0587929226, 0.000520291389, 0.0332986489, 0.000520291389, 0.,
          0.000520291389, 0.0062434962, 0.000520291389, 0.00156087405,
          0., 0.000780437025, 0.00104058278, 0.000260145694,
          0.000780437025, 0.00676378794, 0.024453694, 0.0148283038,
          0.000520291389, 0.00572320493, 0.000520291389, 0.000260145694,
          0.000520291389, 0.00104058278, 0.0202913638, 0.0106659727,
          0.000780437025, 0.0101456819, 0.00858480763, 0.0018210198,
          0.00676378794, 0.0221123826 ]
      - [ 0.0858480781, 0.034079086, 0.00806451589, 0.0111862645,
          0.0018210198, 0.00104058278, 0.00832466222, 0.0111862645,
          0.0101456819, 0.00260145683, 0., 0.000780437025, 0.00962539017,
          0.00364203961, 0.0359001048, 0.0548907407, 0.0374609791,
          0.00130072841, 0.00442247652, 0., 0.000780437025, 0.,
          0.00338189397, 0.000260145694, 0.0135275759, 0.000260145694,
          0.000260145694, 0.000260145694, 0.0145681584, 0.00104058278,
          0.0655567124, 0.00910509843, 0.00676378794, 0.00338189397,
          0.000260145694, 0.000260145694, 0.000520291389, 0.,
          0.000520291389, 0.00130072841, 0.000780437025, 0.000780437025,
          0., 0., 0.000780437025, 0.000520291389, 0.00364203961,
          0.0031217481, 0.00858480763, 0.000520291389, 0.000520291389,
          0.000260145694, 0., 0., 0.00104058278, 0.000260145694,
          0.00936524477, 0., 0.000260145694, 0., 0.0101456819,
          0.000260145694, 0.0119667016, 0.00260145683, 0.0031217481, 0.,
          0., 0.000260145694, 0.000260145694, 0.000260145694,
          0.000260145694, 0.000260145694, 0., 0.000260145694, 0., 0., 0.,
          0., 0.000260145694, 0.000520291389, 0.0018210198, 0.,
          0.000260145694, 0., 0., 0.000260145694, 0.000260145694, 0., 0.,
          0., 0., 0., 0., 0., 0.000520291389, 0., 0.00442247652,
          0.0031217481, 0.00104058278, 0.000520291389, 0.000260145694,
          0.000260145694, 0.000520291389, 0.00156087405, 0.000520291389,
          0., 0., 0., 0.000260145694, 0., 0.00234131119, 0.00286160246,
          0.0140478667, 0.000520291389, 0., 0., 0., 0., 0., 0.,
          0.0117065553, 0., 0.000520291389, 0., 0.00494276779, 0.,
          0.0104058273, 0.00234131119, 0.00754422462, 0.0127471387,
          0.00234131119, 0.00650364207, 0., 0., 0.00104058278,
          0.00988553558, 0.000520291389, 0.00104058278, 0.000520291389,
          0.000260145694, 0.000260145694, 0.00156087405, 0.00208116556,
          0.0104058273, 0.00260145683, 0.000520291389, 0.000260145694,
          0., 0., 0., 0., 0., 0.000520291389, 0.000520291389, 0., 0.,
          0.000520291389, 0., 0.00208116556, 0.00208116556,
          0.000520291389, 0., 0.000260145694, 0., 0., 0., 0., 0., 0., 0.,
          0., 0., 0., 0., 0., 0.000260145694, 0.000520291389,
          0.000260145694, 0., 0., 0., 0., 0., 0., 0., 0., 0., 0., 0., 0.,
          0.00104058278, 0.000520291389, 0.00702393334, 0.0111862645,
          0.000520291389, 0.00884495303, 0., 0., 0.000780437025,
          0.00468262238, 0.000260145694, 0.000260145694, 0.,
          0.000260145694, 0., 0., 0.00208116556, 0.00546305953,
          0.00390218524, 0.000520291389, 0., 0., 0.000260145694, 0.,
          0.000260145694, 0.000260145694, 0.00208116556, 0.000260145694,
          0., 0., 0.000260145694, 0., 0.00208116556, 0.0018210198,
          0.0314776264, 0.0551508851, 0.00208116556, 0.0135275759,
          0.000260145694, 0.000520291389, 0.00156087405, 0.00546305953,
          0.00104058278, 0.00156087405, 0.000260145694, 0.000260145694,
          0.0018210198, 0.00130072841, 0.0187304895, 0.029916754,
          0.0564516112, 0.00546305953, 0.00234131119, 0.000520291389, 0.,
          0., 0.00286160246, 0.00130072841, 0.0132674295, 0.00130072841,
          0.000520291389, 0.000520291389, 0.0059833508, 0.000520291389,
          0.0325182118, 0.0187304895 ]
      - [ 0.0499479696, 0.00754422462, 0.00780437049, 0.0137877213,
          0.0111862645, 0.000780437025, 0.0119667016, 0.0265348591,
          0.00572320493, 0.000260145694, 0.00104058278, 0.000520291389,
          0.0153485956, 0.00130072841, 0.029916754, 0.0369406864,
          0.00962539017, 0.000520291389, 0.00104058278, 0.00104058278,
          0.000520291389, 0.000260145694, 0.00130072841, 0.00104058278,
          0.0124869924, 0.000780437025, 0.00156087405, 0.000260145694,
          0.0236732569, 0.000780437025, 0.0314776264, 0.0127471387,
          0.00442247652, 0.000780437025, 0.00104058278, 0.00104058278,
          0.00104058278, 0., 0.00104058278, 0.000260145694,
          0.000520291389, 0., 0.000260145694, 0., 0.00130072841, 0.,
          0.00130072841, 0.000260145694, 0.00806451589, 0.000780437025,
          0.000520291389, 0.000260145694, 0.00104058278, 0.,
          0.00104058278, 0.000260145694, 0.0200312175, 0.00130072841,
          0.00130072841, 0.00104058278, 0.0200312175, 0., 0.024453694,
          0.00988553558, 0.0101456819, 0.00104058278, 0.000520291389,
          0.00156087405, 0.00208116556, 0., 0.000520291389,
          0.000520291389, 0., 0.000260145694, 0., 0., 0.00156087405, 0.,
          0.00234131119, 0.000520291389, 0.000780437025, 0.,
          0.000260145694, 0., 0., 0., 0., 0., 0.00130072841, 0., 0., 0.,
          0.00104058278, 0., 0.000260145694, 0.000260145694,
          0.0158688873, 0.00208116556, 0.000520291389, 0.00104058278,
          0.000520291389, 0., 0.000260145694, 0.000260145694,
          0.000520291389, 0., 0.000260145694, 0., 0.000780437025, 0.,
          0.000260145694, 0.000260145694, 0.0223725289, 0.000260145694,
          0.000780437025, 0.000260145694, 0.000260145694, 0.000260145694,
          0.000780437025, 0.00104058278, 0.0174297616, 0.,
          0.000780437025, 0.00104058278, 0.00936524477, 0.000520291389,
          0.0062434962, 0.0018210198, 0.00780437049, 0.0137877213,
          0.000260145694, 0.0267950054, 0.000780437025, 0.000780437025,
          0.00130072841, 0.0343392305, 0.000520291389, 0.00130072841, 0.,
          0.00156087405, 0.000780437025, 0.0018210198, 0.000780437025,
          0.0280957334, 0.000780437025, 0.000780437025, 0.,
          0.00104058278, 0., 0., 0., 0.000780437025, 0.000780437025, 0.,
          0.000260145694, 0.00104058278, 0.00104058278, 0.,
          0.000520291389, 0.00676378794, 0.000520291389, 0.00104058278,
          0., 0.00130072841, 0., 0., 0.000260145694, 0.000780437025, 0.,
          0., 0., 0.000260145694, 0., 0., 0., 0.00156087405,
          0.00130072841, 0.000780437025, 0., 0.00104058278, 0., 0.,
          0.000260145694, 0.000780437025, 0.00156087405, 0.0018210198,
          0.000260145694, 0.00728407921, 0.000260145694, 0.000780437025,
          0.00130072841, 0.00910509843, 0.0124869924, 0.0208116546,
          0.00104058278, 0.0275754426, 0.000520291389, 0.000780437025,
          0.000780437025, 0.0124869924, 0.000260145694, 0.000780437025,
          0., 0.000520291389, 0., 0.000260145694, 0.000780437025,
          0.00520291366, 0.00156087405, 0.000260145694, 0., 0., 0., 0.,
          0., 0.000520291389, 0.000260145694, 0., 0.000260145694,
          0.00104058278, 0.000260145694, 0.000260145694, 0.000520291389,
          0.00260145683, 0.0223725289, 0.0288761705, 0.00104058278,
          0.0223725289, 0.000780437025, 0.000520291389, 0.00104058278,
          0.00390218524, 0.000780437025, 0.000260145694, 0.000260145694,
          0.000520291389, 0.000780437025, 0.00104058278, 0.00260145683,
          0.00546305953, 0.0241935477, 0.0106659727, 0., 0.00728407921,
          0.000260145694, 0.000260145694, 0.000780437025, 0.0018210198,
          0.0241935477, 0.00650364207, 0.00156087405, 0.0062434962,
          0.00390218524, 0.00234131119, 0.0059833508, 0.018990634 ]
      - [ 0.131893858, 0.00780437049, 0.0127471387, 0.00546305953,
          0.0109261191, 0.0031217481, 0.00468262238, 0.00442247652,
          0.0293964613, 0.0018210198, 0.00494276779, 0.00104058278,
          0.00234131119, 0.00208116556, 0.00858480763, 0.0140478667,
          0.00988553558, 0.00260145683, 0.00286160246, 0.00104058278,
          0.00104058278, 0.00156087405, 0.00234131119, 0.0018210198,
          0.00416233111, 0., 0.00104058278, 0.000780437025,
          0.00338189397, 0.000520291389, 0.0109261191, 0.00286160246,
          0.0111862645, 0.00416233111, 0.0018210198, 0.000260145694,
          0.00520291366, 0.00416233111, 0.00234131119, 0.00260145683,
          0.00286160246, 0., 0.00104058278, 0., 0.000780437025,
          0.00156087405, 0., 0.0018210198, 0.00338189397, 0.00130072841,
          0.00104058278, 0.0018210198, 0.00364203961, 0.00286160246,
          0.00234131119, 0.00260145683, 0.00962539017, 0.000260145694,
          0.00130072841, 0.000520291389, 0.0062434962, 0.00260145683,
          0.00442247652, 0.0031217481, 0.00910509843, 0.000780437025,
          0.0062434962, 0.00208116556, 0.00260145683, 0.000260145694,
          0.000260145694, 0.00156087405, 0.00910509843, 0.000520291389,
          0.00520291366, 0.00104058278, 0.000260145694, 0.,
          0.00208116556, 0.000260145694, 0.00234131119, 0.00234131119,
          0.00390218524, 0.00416233111, 0.000520291389, 0.000260145694,
          0.000780437025, 0.000260145694, 0.00572320493, 0.000520291389,
          0.0104058273, 0.00494276779, 0.00156087405, 0.000520291389,
          0.00468262238, 0.00702393334, 0.00442247652, 0.00156087405,
          0.000520291389, 0.0031217481, 0.000260145694, 0.000260145694,
          0.000780437025, 0.000780437025, 0.000780437025, 0.000260145694,
          0.000520291389, 0.000260145694, 0.000260145694, 0.000780437025,
          0.000780437025, 0.000780437025, 0.00364203961, 0.00130072841,
          0.00234131119, 0.0018210198, 0.000520291389, 0.0018210198,
          0.00156087405, 0.00676378794, 0.00728407921, 0.00104058278,
          0.00780437049, 0.00416233111, 0.00208116556, 0.000780437025,
          0.00286160246, 0.0174297616, 0.0301768985, 0.0062434962,
          0.000780437025, 0.00676378794, 0.00962539017, 0.00520291366,
          0.00156087405, 0.0153485956, 0.00520291366, 0.0018210198,
          0.00156087405, 0.000780437025, 0.00130072841, 0.00390218524,
          0.00104058278, 0.0062434962, 0.00286160246, 0.000260145694,
          0.000260145694, 0.000780437025, 0.000520291389, 0.00104058278,
          0.00130072841, 0.000520291389, 0.00104058278, 0.000780437025,
          0.000260145694, 0.00130072841, 0.00130072841, 0.000780437025,
          0.00156087405, 0.00130072841, 0.00546305953, 0.00234131119,
          0.00104058278, 0.00104058278, 0.00416233111, 0.0114464099, 0.,
          0.00416233111, 0.00104058278, 0.000260145694, 0.,
          0.000260145694, 0.00234131119, 0.00208116556, 0.000260145694,
          0.00208116556, 0.00130072841, 0.000780437025, 0., 0.0018210198,
          0.00156087405, 0.00234131119, 0., 0.0062434962, 0.000520291389,
          0.000520291389, 0., 0.00208116556, 0.00208116556,
          0.00520291366, 0.00104058278, 0.0111862645, 0.00442247652,
          0.0031217481, 0.000260145694, 0.0119667016, 0.00104058278,
          0.000520291389, 0., 0.00260145683, 0.0018210198, 0.00156087405,
          0.00130072841, 0.00156087405, 0.000520291389, 0.000520291389,
          0.000520291389, 0.00338189397, 0.0018210198, 0.000780437025,
          0.000780437025, 0.0018210198, 0., 0.00104058278,
          0.000520291389, 0.00208116556, 0.00572320493, 0.000520291389,
          0.00234131119, 0.00338189397, 0.000780437025, 0.00130072841,
          0.00260145683, 0.00702393334, 0.00884495303, 0.00936524477,
          0.00104058278, 0.00390218524, 0.0018210198, 0.00234131119,
          0.000260145694, 0.00442247652, 0.00156087405, 0.00286160246,
          0.00104058278, 0.000260145694, 0.00156087405, 0.000520291389,
          0.00130072841, 0.00702393334, 0.00650364207, 0.00338189397,
          0.00208116556, 0.00468262238, 0.000780437025, 0.00286160246,
          0.0018210198, 0.0179500524, 0.00338189397, 0.00208116556,
          0.00416233111, 0.012226847, 0.00156087405, 0.0059833508,
          0.00676378794, 0.0702393353 ]
      - [ 0.964360058, 0.000260145694, 0.000520291389, 0.000260145694,
          0., 0., 0.000260145694, 0., 0.00130072841, 0., 0., 0., 0., 0.,
          0.0101456819, 0.000260145694, 0.000260145694, 0., 0., 0., 0.,
          0., 0., 0., 0.000780437025, 0., 0., 0., 0., 0., 0.000260145694,
          0., 0.000260145694, 0., 0., 0., 0., 0., 0., 0., 0., 0., 0., 0.,
          0., 0., 0., 0., 0., 0., 0., 0., 0., 0., 0., 0., 0.0163891781,
          0., 0., 0., 0.00130072841, 0., 0.000260145694, 0., 0., 0., 0.,
          0., 0., 0., 0., 0., 0., 0., 0., 0., 0., 0., 0., 0., 0., 0., 0.,
          0., 0., 0., 0., 0., 0., 0., 0., 0., 0., 0., 0., 0., 0., 0., 0.,
          0., 0., 0., 0., 0., 0., 0., 0., 0., 0., 0., 0., 0., 0., 0., 0.,
          0., 0., 0., 0., 0., 0.000260145694, 0., 0., 0., 0., 0., 0., 0.,
          0., 0., 0.000260145694, 0.00156087405, 0., 0., 0.,
          0.000260145694, 0., 0., 0., 0., 0., 0., 0., 0.000520291389, 0.,
          0., 0., 0., 0., 0., 0., 0., 0., 0., 0., 0., 0., 0., 0., 0., 0.,
          0., 0., 0., 0., 0., 0., 0., 0., 0., 0., 0., 0., 0., 0., 0., 0.,
          0., 0., 0., 0., 0., 0., 0., 0., 0., 0., 0., 0., 0., 0., 0., 0.,
          0., 0., 0., 0., 0., 0., 0.000260145694, 0., 0., 0., 0., 0., 0.,
          0., 0., 0., 0., 0., 0., 0., 0., 0., 0., 0., 0., 0., 0., 0., 0.,
          0., 0., 0., 0., 0., 0., 0., 0., 0., 0., 0., 0., 0., 0., 0., 0.,
          0., 0., 0., 0., 0., 0., 0., 0., 0., 0., 0., 0., 0., 0., 0., 0.,
          0., 0. ]
      - [ 0.131633714, 0.0254942775, 0.0130072841, 0.00650364207,
          0.0111862645, 0.00338189397, 0.00702393334, 0.0059833508,
          0.0109261191, 0.00286160246, 0.00260145683, 0.00104058278,
          0.00780437049, 0.00234131119, 0.0132674295, 0.0148283038,
          0.0223725289, 0.00338189397, 0.00364203961, 0.000780437025,
          0.0018210198, 0.000520291389, 0.0018210198, 0.00104058278,
          0.00728407921, 0.00156087405, 0.000780437025, 0.000520291389,
          0.00676378794, 0.000780437025, 0.0132674295, 0.00728407921,
          0.0150884492, 0.00208116556, 0.00130072841, 0.00156087405,
          0.00104058278, 0.000520291389, 0.00234131119, 0.0018210198,
          0.00208116556, 0.00104058278, 0.000520291389, 0.000520291389,
          0.00104058278, 0.000260145694, 0.00208116556, 0.0018210198,
          0.00546305953, 0.00130072841, 0.00208116556, 0., 0.0018210198,
          0.000260145694, 0.00104058278, 0.00104058278, 0.00520291366,
          0.000780437025, 0.000520291389, 0.00104058278, 0.00572320493,
          0.00104058278, 0.00494276779, 0.00286160246, 0.0124869924,
          0.00234131119, 0.0018210198, 0.00156087405, 0.00260145683,
          0.000780437025, 0.00156087405, 0.000780437025, 0.000780437025,
          0.000520291389, 0.000520291389, 0.000520291389, 0.00104058278,
          0.000520291389, 0.0018210198, 0.00130072841, 0.00338189397,
          0.000260145694, 0.00104058278, 0.000520291389, 0.000260145694,
          0.00104058278, 0.000520291389, 0.000520291389, 0.00104058278,
          0., 0.000780437025, 0.00156087405, 0.00104058278,
          0.00104058278, 0.00130072841, 0.000520291389, 0.00806451589,
          0.00260145683, 0.00338189397, 0.00156087405, 0.000260145694,
          0.000520291389, 0.000780437025, 0.000780437025, 0.00104058278,
          0.000780437025, 0.000520291389, 0.000520291389, 0.00104058278,
          0.00104058278, 0.00130072841, 0.00234131119, 0.00520291366,
          0.000520291389, 0.000780437025, 0.000780437025, 0.000520291389,
          0.000520291389, 0.00104058278, 0.000780437025, 0.00442247652,
          0.00130072841, 0.00234131119, 0.00156087405, 0.00208116556,
          0.00130072841, 0.00390218524, 0.00494276779, 0.0174297616,
          0.00702393334, 0.00208116556, 0.0062434962, 0.00286160246,
          0.00208116556, 0.00286160246, 0.00728407921, 0.00286160246,
          0.000780437025, 0., 0.0018210198, 0.000780437025,
          0.000260145694, 0.00234131119, 0.00520291366, 0.00234131119,
          0.00130072841, 0.000780437025, 0.00104058278, 0.000520291389,
          0.000520291389, 0.000780437025, 0.00130072841, 0.00104058278,
          0.00104058278, 0.00130072841, 0.0018210198, 0.00104058278,
          0.000260145694, 0.0018210198, 0.00364203961, 0.00468262238,
          0.0018210198, 0.000780437025, 0.00234131119, 0.000260145694,
          0.000780437025, 0.000520291389, 0.00130072841, 0.000780437025,
          0.000780437025, 0.000260145694, 0.00130072841, 0.00130072841,
          0.000260145694, 0.00104058278, 0.0018210198, 0.00208116556,
          0.0018210198, 0.000260145694, 0.00234131119, 0.00104058278,
          0.000260145694, 0.0018210198, 0.00286160246, 0.00104058278,
          0.000780437025, 0.000520291389, 0.00234131119, 0.00130072841,
          0.00130072841, 0.0018210198, 0.00520291366, 0.0132674295,
          0.0104058273, 0.00208116556, 0.00780437049, 0.0018210198,
          0.0031217481, 0.0018210198, 0.00338189397, 0.00208116556,
          0.00104058278, 0.000260145694, 0.00234131119, 0.00130072841,
          0.000260145694, 0.0018210198, 0.00806451589, 0.00234131119,
          0.00260145683, 0.00208116556, 0.000780437025, 0.000260145694,
          0.000520291389, 0.000520291389, 0.0018210198, 0.00130072841,
          0.000520291389, 0.000520291389, 0.0018210198, 0.00156087405,
          0.00156087405, 0.00338189397, 0.00390218524, 0.0187304895,
          0.0387617052, 0.00286160246, 0.00728407921, 0.00260145683,
          0.00260145683, 0.00338189397, 0.00416233111, 0.00208116556,
          0.00442247652, 0.00208116556, 0.00260145683, 0.0018210198,
          0.00364203961, 0.00728407921, 0.0174297616, 0.0104058273,
          0.0137877213, 0.00286160246, 0.00832466222, 0.0018210198,
          0.00260145683, 0.00260145683, 0.00910509843, 0.00468262238,
          0.00494276779, 0.00338189397, 0.0104058273, 0.00572320493,
          0.0062434962, 0.0124869924, 0.0551508851 ]
      - [ 0.326742977, 0.000520291389, 0.000780437025, 0., 0., 0.,
          0.000780437025, 0., 0.00390218524, 0., 0., 0., 0.00390218524,
          0., 0.520031214, 0.00390218524, 0.00156087405, 0., 0., 0., 0.,
          0., 0., 0., 0.000780437025, 0., 0., 0., 0.000520291389, 0.,
          0.00702393334, 0., 0.000260145694, 0., 0., 0., 0., 0., 0., 0.,
          0., 0., 0., 0., 0., 0., 0.00104058278, 0., 0.000260145694, 0.,
          0., 0., 0., 0., 0., 0., 0., 0., 0., 0., 0., 0., 0.000520291389,
          0., 0., 0., 0., 0., 0., 0., 0., 0., 0., 0., 0., 0., 0., 0., 0.,
          0., 0., 0., 0., 0., 0., 0., 0., 0., 0., 0., 0., 0., 0., 0., 0.,
          0., 0.000260145694, 0., 0., 0., 0., 0., 0., 0., 0., 0., 0., 0.,
          0., 0., 0.000520291389, 0., 0., 0., 0., 0., 0., 0., 0., 0., 0.,
          0., 0., 0., 0., 0., 0.000520291389, 0., 0.000260145694, 0., 0.,
          0., 0., 0., 0., 0., 0., 0., 0., 0., 0., 0., 0., 0., 0., 0., 0.,
          0., 0., 0., 0., 0., 0., 0., 0., 0., 0., 0., 0., 0., 0., 0., 0.,
          0., 0., 0., 0., 0., 0., 0., 0., 0., 0., 0., 0., 0., 0., 0., 0.,
          0., 0., 0., 0., 0., 0., 0., 0., 0., 0., 0., 0., 0.,
          0.000260145694, 0., 0., 0., 0., 0., 0., 0., 0., 0., 0., 0., 0.,
          0., 0., 0., 0., 0., 0., 0., 0., 0., 0., 0., 0., 0., 0., 0., 0.,
          0., 0., 0., 0.0634755492, 0.000260145694, 0.000520291389, 0.,
          0., 0., 0.000520291389, 0., 0., 0., 0., 0., 0., 0.,
          0.0561914667, 0.000520291389, 0.00156087405, 0., 0., 0., 0.,
          0., 0., 0., 0., 0., 0., 0., 0., 0., 0.00260145683, 0. ]
      - [ 0.093912594, 0.0312174819, 0.00676378794, 0.0059833508,
          0.00442247652, 0.00130072841, 0.00728407921, 0.00754422462,
          0.00936524477, 0.00572320493, 0.000520291389, 0.00104058278,
          0.0062434962, 0.00520291366, 0.0262747146, 0.0392819978,
          0.0369406864, 0.00468262238, 0.0062434962, 0.0018210198,
          0.00208116556, 0., 0.00572320493, 0.000520291389,
          0.00858480763, 0.000780437025, 0.00104058278, 0.00104058278,
          0.0143080121, 0.000260145694, 0.0621748194, 0.00702393334,
          0.00988553558, 0.00572320493, 0.00130072841, 0.00130072841, 0.,
          0., 0.00156087405, 0.00156087405, 0.000780437025,
          0.00208116556, 0., 0.000780437025, 0.000260145694,
          0.00104058278, 0.00208116556, 0.0062434962, 0.00780437049,
          0.00130072841, 0.00208116556, 0., 0.000780437025,
          0.000260145694, 0.00208116556, 0.000780437025, 0.00754422462,
          0.000520291389, 0.000520291389, 0.000260145694, 0.0117065553,
          0.000260145694, 0.0106659727, 0.0018210198, 0.00338189397,
          0.00234131119, 0.000520291389, 0.000780437025, 0.000520291389,
          0., 0.000520291389, 0., 0.00104058278, 0., 0., 0., 0., 0.,
          0.000780437025, 0.00130072841, 0.00104058278, 0.000260145694,
          0.000260145694, 0., 0., 0., 0.000260145694, 0., 0.000780437025,
          0.000260145694, 0., 0., 0., 0., 0.000520291389, 0.000520291389,
          0.00520291366, 0.00650364207, 0.000520291389, 0.0018210198,
          0.00104058278, 0., 0.000260145694, 0.000780437025,
          0.00130072841, 0.00208116556, 0., 0.000260145694,
          0.00104058278, 0.00156087405, 0.00260145683, 0.00702393334,
          0.0101456819, 0.000520291389, 0.00130072841, 0.000520291389,
          0.000260145694, 0., 0.000520291389, 0.000780437025,
          0.0111862645, 0., 0.000520291389, 0., 0.0018210198,
          0.000780437025, 0.00416233111, 0.00520291366, 0.00676378794,
          0.00390218524, 0.00156087405, 0.00338189397, 0.0018210198,
          0.000260145694, 0.000780437025, 0.0059833508, 0.00104058278,
          0.00156087405, 0., 0.000260145694, 0.00104058278,
          0.00156087405, 0.00286160246, 0.0119667016, 0.00390218524,
          0.00130072841, 0.00156087405, 0.000520291389, 0.000260145694,
          0., 0.00156087405, 0.000520291389, 0.00156087405,
          0.000260145694, 0.000260145694, 0.000520291389, 0.00156087405,
          0.000780437025, 0.00390218524, 0.00338189397, 0.000520291389,
          0.000780437025, 0.000260145694, 0.000260145694, 0., 0., 0., 0.,
          0., 0.000780437025, 0., 0., 0.000520291389, 0.000260145694,
          0.000780437025, 0.00156087405, 0.000780437025, 0.,
          0.000260145694, 0., 0., 0., 0.000260145694, 0.000520291389, 0.,
          0.000520291389, 0.000260145694, 0., 0.000520291389,
          0.000520291389, 0.000780437025, 0.00364203961, 0.00416233111,
          0.00884495303, 0.00156087405, 0.00572320493, 0.000520291389,
          0.000520291389, 0.000520291389, 0.00208116556, 0.00104058278,
          0.00104058278, 0.000520291389, 0., 0.000520291389,
          0.00156087405, 0.0018210198, 0.0062434962, 0.00442247652, 0.,
          0.00104058278, 0.000520291389, 0.000260145694, 0.,
          0.00130072841, 0.000520291389, 0.0018210198, 0.000520291389,
          0., 0.000780437025, 0.00130072841, 0.000520291389,
          0.00546305953, 0.00390218524, 0.0145681584, 0.037981268,
          0.00156087405, 0.00884495303, 0.000520291389, 0.00104058278,
          0.00208116556, 0.00546305953, 0.0031217481, 0.00468262238,
          0.00104058278, 0.00260145683, 0.00260145683, 0.0059833508,
          0.00754422462, 0.0257544219, 0.0418834537, 0.00442247652,
          0.00468262238, 0.00260145683, 0.000260145694, 0.00104058278,
          0.00390218524, 0.00364203961, 0.00780437049, 0.0018210198,
          0.00130072841, 0.00260145683, 0.00520291366, 0.00364203961,
          0.0288761705, 0.0483870953 ]
      - [ 0.0548907407, 0.0239334032, 0.00702393334, 0.0119667016,
          0.00572320493, 0.0018210198, 0.00858480763, 0.0236732569,
          0.00572320493, 0.00104058278, 0.000780437025, 0.000260145694,
          0.00884495303, 0.00156087405, 0.0171696153, 0.0286160242,
          0.0163891781, 0.00104058278, 0.00234131119, 0.000520291389,
          0.00130072841, 0., 0.00104058278, 0.00104058278, 0.0104058273,
          0.00104058278, 0.00104058278, 0.000780437025, 0.0314776264,
          0.000780437025, 0.0387617052, 0.00702393334, 0.00650364207,
          0.00286160246, 0.000780437025, 0.0018210198, 0.000260145694,
          0.000260145694, 0.00104058278, 0.00156087405, 0.000260145694,
          0.000260145694, 0.000260145694, 0.000520291389, 0.,
          0.000780437025, 0.00130072841, 0.00130072841, 0.00780437049,
          0.000780437025, 0.00234131119, 0.000260145694, 0.0018210198,
          0.000520291389, 0.00208116556, 0.00156087405, 0.0171696153,
          0.000520291389, 0.000260145694, 0.000520291389, 0.0215920918,
          0.000520291389, 0.0280957334, 0.00442247652, 0.00884495303,
          0.00130072841, 0.000780437025, 0.00104058278, 0.,
          0.000260145694, 0.000260145694, 0.000520291389, 0.000520291389,
          0.000260145694, 0., 0., 0., 0., 0.000520291389, 0.,
          0.00208116556, 0., 0.000260145694, 0., 0., 0., 0.,
          0.000260145694, 0.000780437025, 0.000260145694, 0.,
          0.000260145694, 0.000520291389, 0.000260145694, 0.000520291389,
          0.000260145694, 0.0109261191, 0.00416233111, 0., 0.00390218524,
          0.000260145694, 0., 0.00130072841, 0.00208116556,
          0.00104058278, 0.000260145694, 0., 0., 0.000520291389,
          0.000260145694, 0.00104058278, 0.0018210198, 0.0213319454,
          0.000520291389, 0.00234131119, 0.000520291389, 0.000260145694,
          0., 0.000780437025, 0., 0.0184703432, 0.000780437025,
          0.00104058278, 0.000520291389, 0.00754422462, 0.000260145694,
          0.00754422462, 0.00156087405, 0.00702393334, 0.00962539017,
          0.00104058278, 0.0135275759, 0.000780437025, 0.000260145694,
          0.000780437025, 0.0145681584, 0.00130072841, 0.000520291389,
          0., 0.00104058278, 0.00130072841, 0.00234131119,
          0.000260145694, 0.0200312175, 0.00104058278, 0.00156087405, 0.,
          0.000260145694, 0.000260145694, 0.000520291389, 0.000520291389,
          0.000520291389, 0.00130072841, 0.000520291389, 0.,
          0.000780437025, 0.00286160246, 0.00130072841, 0.00286160246,
          0.00390218524, 0.000780437025, 0.000520291389, 0.,
          0.000780437025, 0., 0., 0., 0.000520291389, 0., 0.000520291389,
          0., 0., 0., 0., 0., 0.000520291389, 0.000520291389,
          0.000260145694, 0.000260145694, 0.000260145694, 0., 0.,
          0.000520291389, 0., 0.000260145694, 0., 0., 0.00156087405,
          0.00104058278, 0.000520291389, 0.00234131119, 0.00546305953,
          0.0111862645, 0.0215920918, 0.000520291389, 0.0200312175,
          0.000780437025, 0.000780437025, 0.000260145694, 0.0104058273,
          0.00208116556, 0.0031217481, 0., 0.000780437025, 0.00104058278,
          0.00234131119, 0.00104058278, 0.00858480763, 0.00208116556,
          0.000780437025, 0.000780437025, 0.000780437025, 0.000260145694,
          0.000260145694, 0.000260145694, 0.000520291389, 0.00104058278,
          0.000520291389, 0.000260145694, 0.000260145694, 0.00104058278,
          0.000780437025, 0.00208116556, 0.0031217481, 0.0166493244,
          0.0231529661, 0.000520291389, 0.0171696153, 0., 0.000520291389,
          0.0018210198, 0.00962539017, 0.00208116556, 0.00260145683,
          0.000260145694, 0.00338189397, 0.00156087405, 0.00286160246,
          0.00260145683, 0.0195109267, 0.0312174819, 0.00988553558,
          0.00156087405, 0.00702393334, 0.000260145694, 0.000780437025,
          0.00156087405, 0.0031217481, 0.0179500524, 0.00832466222,
          0.0018210198, 0.00858480763, 0.0059833508, 0.00364203961,
          0.0184703432, 0.0293964613 ]
      - [ 0.374349624, 0.0059833508, 0.00806451589, 0.00390218524,
          0.00416233111, 0.00104058278, 0.00416233111, 0.00728407921,
          0.00702393334, 0.0018210198, 0.00104058278, 0.00104058278,
          0.00156087405, 0.00104058278, 0.00754422462, 0.0130072841,
          0.00520291366, 0.00130072841, 0.000260145694, 0.,
          0.000780437025, 0., 0.00104058278, 0.00104058278, 0.0031217481,
          0.000520291389, 0.00208116556, 0.0018210198, 0.00494276779,
          0.000520291389, 0.0101456819, 0.00364203961, 0.00832466222,
          0.00130072841, 0.000780437025, 0.00104058278, 0.00156087405,
          0.000260145694, 0.000260145694, 0.000520291389, 0.00156087405,
          0.000520291389, 0.000260145694, 0., 0.000780437025,
          0.000260145694, 0.000520291389, 0.00104058278, 0.00442247652,
          0.000780437025, 0.00130072841, 0.000260145694, 0.00130072841,
          0.000520291389, 0.000520291389, 0.000780437025, 0.00806451589,
          0.000520291389, 0.00208116556, 0.00156087405, 0.0145681584,
          0.00130072841, 0.00442247652, 0.00286160246, 0.00442247652, 0.,
          0.0018210198, 0.00286160246, 0.00156087405, 0.000520291389,
          0.000520291389, 0.00104058278, 0.000520291389, 0., 0.,
          0.000260145694, 0.00104058278, 0.000520291389, 0.000780437025,
          0.00104058278, 0.00104058278, 0.000260145694, 0.000260145694,
          0.000520291389, 0.000260145694, 0., 0.000260145694, 0.,
          0.0018210198, 0., 0.000260145694, 0.000780437025,
          0.000520291389, 0., 0.000260145694, 0.00234131119,
          0.00416233111, 0.00260145683, 0.00104058278, 0.000780437025,
          0.000520291389, 0.000260145694, 0.000520291389, 0.000520291389,
          0.00104058278, 0.000260145694, 0.000520291389, 0.,
          0.000780437025, 0., 0.00104058278, 0.00104058278,
          0.00858480763, 0.00130072841, 0.000780437025, 0.000520291389,
          0., 0.000780437025, 0.000260145694, 0.000260145694,
          0.0202913638, 0.00234131119, 0.00104058278, 0.000780437025,
          0.00858480763, 0.00156087405, 0.0031217481, 0.0062434962,
          0.00728407921, 0.00520291366, 0.00416233111, 0.0101456819,
          0.00104058278, 0.0018210198, 0.000520291389, 0.027835587,
          0.000520291389, 0.00130072841, 0.000780437025, 0.00208116556,
          0.000780437025, 0.000520291389, 0.00104058278, 0.00832466222,
          0.00130072841, 0.000260145694, 0.000780437025, 0.00208116556,
          0.000520291389, 0., 0.000520291389, 0.00130072841,
          0.00104058278, 0., 0.000520291389, 0.00156087405, 0.,
          0.000520291389, 0.00130072841, 0.00442247652, 0.0031217481,
          0.000520291389, 0.000780437025, 0.00234131119, 0.000520291389,
          0.000780437025, 0.000260145694, 0.00234131119, 0.000260145694,
          0.000520291389, 0., 0.00130072841, 0., 0.000260145694,
          0.000520291389, 0.00208116556, 0.00104058278, 0.00104058278,
          0., 0.00208116556, 0., 0.000260145694, 0., 0.00208116556,
          0.00104058278, 0.00104058278, 0.000260145694, 0.00494276779,
          0.000520291389, 0.000780437025, 0.00130072841, 0.00858480763,
          0.00494276779, 0.0059833508, 0.00156087405, 0.0176899061,
          0.000520291389, 0.00156087405, 0.000520291389, 0.00728407921,
          0.000260145694, 0.000520291389, 0., 0.00208116556,
          0.000520291389, 0.000260145694, 0.00130072841, 0.00260145683,
          0.00260145683, 0.000520291389, 0.000260145694, 0.000780437025,
          0., 0.000520291389, 0., 0.00234131119, 0.000260145694,
          0.000260145694, 0.000260145694, 0.00130072841, 0.,
          0.000260145694, 0.000260145694, 0.00676378794, 0.00546305953,
          0.0132674295, 0.000520291389, 0.00858480763, 0.00104058278,
          0.00156087405, 0.000520291389, 0.00468262238, 0.00130072841,
          0.00208116556, 0.000260145694, 0.00130072841, 0.000260145694,
          0.00156087405, 0.00130072841, 0.00676378794, 0.0145681584,
          0.00468262238, 0.00104058278, 0.00546305953, 0.00104058278,
          0.0018210198, 0.00286160246, 0.00520291366, 0.00910509843,
          0.00338189397, 0.00156087405, 0.00728407921, 0.00520291366,
          0.00494276779, 0.00884495303, 0.0377211235 ]
      - [ 0.106139436, 0.0171696153, 0.0132674295, 0.00754422462,
          0.00988553558, 0.00208116556, 0.0062434962, 0.00650364207,
          0.0104058273, 0.00208116556, 0.00156087405, 0.00208116556,
          0.00676378794, 0.0018210198, 0.00806451589, 0.0140478667,
          0.0176899061, 0.00364203961, 0.00234131119, 0.00104058278,
          0.00130072841, 0.000260145694, 0.00416233111, 0.000520291389,
          0.00858480763, 0.00130072841, 0.00130072841, 0.00104058278,
          0.00832466222, 0.00130072841, 0.0239334032, 0.00520291366,
          0.0127471387, 0.0031217481, 0.00234131119, 0.00104058278,
          0.00130072841, 0., 0.00156087405, 0.00104058278, 0.00156087405,
          0.000260145694, 0.000260145694, 0.000780437025, 0.00260145683,
          0., 0.000520291389, 0.00260145683, 0.0101456819, 0.00234131119,
          0.0018210198, 0.000520291389, 0.00208116556, 0.000260145694,
          0.000780437025, 0.000260145694, 0.00910509843, 0.00156087405,
          0.0018210198, 0.000260145694, 0.0174297616, 0.000520291389,
          0.00702393334, 0.00286160246, 0.012226847, 0.00364203961,
          0.00286160246, 0.00104058278, 0.00156087405, 0.000260145694,
          0.00104058278, 0.00156087405, 0.0018210198, 0.000260145694, 0.,
          0.000260145694, 0.000780437025, 0.000520291389, 0.0018210198,
          0.00130072841, 0.00286160246, 0., 0., 0.000520291389,
          0.000780437025, 0.000520291389, 0., 0.000520291389,
          0.000520291389, 0.000260145694, 0.000260145694, 0.000520291389,
          0.000780437025, 0., 0.000260145694, 0.000520291389,
          0.0109261191, 0.0031217481, 0.00234131119, 0.00208116556,
          0.000260145694, 0.000520291389, 0.00208116556, 0.000780437025,
          0.00104058278, 0.000520291389, 0.000260145694, 0.000260145694,
          0.00234131119, 0.000260145694, 0.00234131119, 0.00156087405,
          0.00780437049, 0.000520291389, 0.000520291389, 0.00156087405,
          0.00130072841, 0.000520291389, 0.00130072841, 0.000780437025,
          0.0124869924, 0.00130072841, 0.00156087405, 0.00234131119,
          0.00702393334, 0.00130072841, 0.00338189397, 0.00520291366,
          0.015608741, 0.00962539017, 0.00286160246, 0.0124869924,
          0.00286160246, 0.0018210198, 0.00104058278, 0.0184703432,
          0.00286160246, 0.00156087405, 0.000780437025, 0.00156087405,
          0.00156087405, 0.00130072841, 0.0018210198, 0.0059833508,
          0.0031217481, 0.00156087405, 0.000520291389, 0.00208116556,
          0.000780437025, 0.00104058278, 0.000780437025, 0.00156087405,
          0.00104058278, 0.000780437025, 0.000520291389, 0.,
          0.00130072841, 0.00104058278, 0.00156087405, 0.00286160246,
          0.00520291366, 0.00130072841, 0.00156087405, 0.00208116556,
          0.000520291389, 0.000520291389, 0.00130072841, 0.00104058278,
          0.000260145694, 0.000520291389, 0.000780437025, 0.00130072841,
          0., 0.00104058278, 0.000780437025, 0.00156087405, 0.0018210198,
          0.00104058278, 0.000780437025, 0.00130072841, 0.,
          0.00104058278, 0.000520291389, 0.0018210198, 0.0031217481,
          0.0018210198, 0.000260145694, 0.00130072841, 0.00260145683,
          0.0018210198, 0.00234131119, 0.00572320493, 0.0109261191,
          0.0158688873, 0.00234131119, 0.0273152962, 0.00156087405,
          0.00234131119, 0.00208116556, 0.00572320493, 0.00260145683,
          0.00156087405, 0., 0.00338189397, 0.000520291389,
          0.000520291389, 0.00260145683, 0.00468262238, 0.00130072841,
          0.0018210198, 0.000780437025, 0.00104058278, 0.000260145694,
          0.000780437025, 0.000780437025, 0.00130072841, 0.000520291389,
          0.00104058278, 0.000260145694, 0.0031217481, 0.00130072841,
          0.00260145683, 0.00260145683, 0.00572320493, 0.0169094689,
          0.0254942775, 0.00286160246, 0.0104058273, 0.00130072841,
          0.00156087405, 0.00156087405, 0.00494276779, 0.00130072841,
          0.00338189397, 0.00130072841, 0.00234131119, 0.00234131119,
          0.00234131119, 0.00338189397, 0.0145681584, 0.0163891781,
          0.00572320493, 0.00260145683, 0.00702393334, 0.00156087405,
          0.00104058278, 0.00208116556, 0.00572320493, 0.00962539017,
          0.00676378794, 0.00104058278, 0.00936524477, 0.00520291366,
          0.00832466222, 0.0119667016, 0.043444328 ]
      - [ 0.115244538, 0.0221123826, 0.0150884492, 0.00702393334,
          0.0104058273, 0.00338189397, 0.0119667016, 0.0059833508,
          0.0124869924, 0.00468262238, 0.00468262238, 0.00104058278,
          0.00650364207, 0.00338189397, 0.0304370448, 0.0330385007,
          0.0174297616, 0.00442247652, 0.00338189397, 0.000780437025,
          0.00234131119, 0.00156087405, 0.00208116556, 0.00234131119,
          0.0059833508, 0.000780437025, 0.000520291389, 0.00156087405,
          0.00494276779, 0.00208116556, 0.0221123826, 0.00806451589,
          0.0132674295, 0.00416233111, 0.00260145683, 0.00130072841,
          0.00156087405, 0.00156087405, 0.000260145694, 0.00104058278,
          0.00286160246, 0.000260145694, 0.000260145694, 0.000520291389,
          0.00156087405, 0.00130072841, 0.00286160246, 0.00520291366,
          0.00364203961, 0.00130072841, 0.00130072841, 0.000780437025,
          0.00130072841, 0.000260145694, 0.00130072841, 0.00104058278,
          0.00494276779, 0.000260145694, 0.000780437025, 0.000780437025,
          0.0101456819, 0.00104058278, 0.0059833508, 0.00260145683,
          0.0109261191, 0.00364203961, 0.00208116556, 0.0018210198,
          0.00130072841, 0.000520291389, 0.000780437025, 0.00104058278,
          0.00234131119, 0.00104058278, 0.000260145694, 0.000260145694,
          0.000520291389, 0.00104058278, 0.00130072841, 0.00130072841,
          0.00130072841, 0.000260145694, 0.000520291389, 0.,
          0.000260145694, 0.000520291389, 0., 0.000520291389,
          0.000780437025, 0.000780437025, 0.000260145694, 0., 0.,
          0.000520291389, 0.00286160246, 0.00234131119, 0.0062434962,
          0.00208116556, 0.00234131119, 0.00104058278, 0.00104058278,
          0.000780437025, 0.000520291389, 0.000260145694, 0.0018210198,
          0.00104058278, 0., 0.00130072841, 0.000780437025,
          0.000780437025, 0.00208116556, 0.00364203961, 0.00494276779,
          0.000780437025, 0.00104058278, 0.000780437025, 0.000520291389,
          0.000780437025, 0.000260145694, 0.00208116556, 0.0124869924,
          0.00104058278, 0.0018210198, 0.00130072841, 0.00234131119,
          0.000520291389, 0.00260145683, 0.00650364207, 0.0195109267,
          0.00728407921, 0.0031217481, 0.00962539017, 0.00208116556,
          0.00208116556, 0.00260145683, 0.00936524477, 0.00234131119,
          0.00156087405, 0.00104058278, 0.0018210198, 0.000520291389,
          0.00260145683, 0.00260145683, 0.00806451589, 0.00416233111,
          0.00130072841, 0.000520291389, 0.000780437025, 0.000260145694,
          0., 0., 0.00260145683, 0.00104058278, 0.000780437025,
          0.000260145694, 0.000260145694, 0.00104058278, 0.00104058278,
          0.00208116556, 0.00546305953, 0.00494276779, 0.000780437025,
          0.000780437025, 0.0018210198, 0., 0., 0., 0.00260145683,
          0.000520291389, 0.000260145694, 0., 0., 0., 0.000520291389,
          0.000780437025, 0.00208116556, 0.00104058278, 0.000780437025,
          0.000780437025, 0.00156087405, 0.000260145694, 0.000520291389,
          0.000780437025, 0.0031217481, 0.000780437025, 0.000520291389,
          0., 0.00130072841, 0., 0.000780437025, 0.00104058278,
          0.0062434962, 0.0062434962, 0.00936524477, 0.00208116556,
          0.00754422462, 0.000520291389, 0.00156087405, 0.00234131119,
          0.00416233111, 0.00130072841, 0.00104058278, 0.00130072841, 0.,
          0.000520291389, 0.000520291389, 0.000780437025, 0.00520291366,
          0.00364203961, 0.00156087405, 0.0018210198, 0.00156087405,
          0.00156087405, 0.00104058278, 0.0018210198, 0.00208116556,
          0.00104058278, 0.00104058278, 0., 0.000780437025,
          0.000260145694, 0.00104058278, 0.00130072841, 0.00884495303,
          0.018990634, 0.0171696153, 0.00208116556, 0.00780437049,
          0.00104058278, 0.00156087405, 0.00260145683, 0.00468262238,
          0.00130072841, 0.00156087405, 0.000260145694, 0.0018210198,
          0.00208116556, 0.00234131119, 0.00858480763, 0.0163891781,
          0.0218522381, 0.00884495303, 0.0031217481, 0.00520291366,
          0.00208116556, 0.00208116556, 0.00286160246, 0.00780437049,
          0.00338189397, 0.00468262238, 0.00104058278, 0.00650364207,
          0.00338189397, 0.00806451589, 0.0148283038, 0.0551508851 ]
      - [ 0.118106142, 0.0111862645, 0.0174297616, 0.0062434962,
          0.0140478667, 0.00416233111, 0.0059833508, 0.00936524477,
          0.0145681584, 0.00390218524, 0.0062434962, 0.00390218524,
          0.00858480763, 0.00338189397, 0.0101456819, 0.0143080121,
          0.012226847, 0.00806451589, 0.00260145683, 0.00130072841,
          0.00468262238, 0.0018210198, 0.00208116556, 0.00260145683,
          0.00338189397, 0.0031217481, 0.00338189397, 0.000780437025,
          0.00494276779, 0.00208116556, 0.0179500524, 0.00728407921,
          0.0106659727, 0.00130072841, 0.0031217481, 0.000780437025,
          0.00260145683, 0.000780437025, 0.0018210198, 0.000260145694,
          0.00260145683, 0.000260145694, 0.00104058278, 0.00104058278,
          0.00208116556, 0.000780437025, 0.00104058278, 0.0018210198,
          0.00390218524, 0.000780437025, 0.00130072841, 0.000520291389,
          0.00208116556, 0.000520291389, 0.00156087405, 0.000520291389,
          0.0062434962, 0.00104058278, 0.00130072841, 0.000520291389,
          0.0106659727, 0.00104058278, 0.00572320493, 0.00468262238,
          0.012226847, 0.00442247652, 0.00494276779, 0.00286160246,
          0.0031217481, 0.0018210198, 0.00260145683, 0.00208116556,
          0.00104058278, 0.00104058278, 0.00130072841, 0.00234131119,
          0.00104058278, 0.000520291389, 0.0018210198, 0.00234131119,
          0.00286160246, 0.00104058278, 0.000520291389, 0.000260145694,
          0.00234131119, 0.000520291389, 0., 0.0018210198, 0.0018210198,
          0., 0.000260145694, 0.00234131119, 0.00104058278,
          0.00130072841, 0.00130072841, 0.0062434962, 0.00728407921,
          0.0031217481, 0.00130072841, 0.00156087405, 0.000780437025,
          0.000780437025, 0.00104058278, 0.00130072841, 0.00104058278,
          0., 0.000520291389, 0.000780437025, 0.00104058278,
          0.00104058278, 0.00130072841, 0.00130072841, 0.00364203961,
          0.00234131119, 0.000780437025, 0.000780437025, 0.00208116556,
          0.000780437025, 0.000520291389, 0.00156087405, 0.0111862645,
          0.000260145694, 0.000520291389, 0.0018210198, 0.00442247652,
          0.0018210198, 0.00338189397, 0.00650364207, 0.0145681584,
          0.00234131119, 0.00676378794, 0.0062434962, 0.00208116556,
          0.000780437025, 0.00468262238, 0.00962539017, 0.00156087405,
          0.00130072841, 0.00130072841, 0.0018210198, 0.00130072841,
          0.00156087405, 0.00364203961, 0.00650364207, 0.0031217481,
          0.00416233111, 0.00156087405, 0.00208116556, 0.00130072841,
          0.00130072841, 0.000260145694, 0.00208116556, 0.000520291389,
          0.00130072841, 0.000520291389, 0.00130072841, 0.000780437025,
          0.00156087405, 0.00130072841, 0.00520291366, 0.00858480763,
          0.00286160246, 0.00234131119, 0.000780437025, 0.00208116556,
          0.00104058278, 0.00130072841, 0.00130072841, 0.000780437025,
          0.000520291389, 0.0018210198, 0.00130072841, 0.000260145694,
          0.000520291389, 0.0018210198, 0.00364203961, 0.0031217481,
          0.00156087405, 0.000520291389, 0.00208116556, 0.00156087405,
          0.00234131119, 0.000520291389, 0.00208116556, 0.00260145683,
          0.000780437025, 0.00104058278, 0.00208116556, 0.00130072841,
          0.00234131119, 0.00286160246, 0.0106659727, 0.00572320493,
          0.00442247652, 0.000520291389, 0.00780437049, 0.0018210198,
          0.00156087405, 0.00156087405, 0.00416233111, 0.00156087405,
          0.000260145694, 0.0018210198, 0.000780437025, 0.000520291389,
          0.00130072841, 0.00234131119, 0.00520291366, 0.00104058278,
          0.00234131119, 0.000520291389, 0.00234131119, 0.000780437025,
          0.00156087405, 0., 0.00520291366, 0.00156087405,
          0.000780437025, 0.000260145694, 0.00260145683, 0.000260145694,
          0.00156087405, 0.0018210198, 0.0104058273, 0.00988553558,
          0.0158688873, 0.0018210198, 0.00572320493, 0.00156087405,
          0.00130072841, 0.00234131119, 0.00234131119, 0.000520291389,
          0.000520291389, 0.0018210198, 0.00260145683, 0.0018210198,
          0.00208116556, 0.00676378794, 0.0119667016, 0.0130072841,
          0.00754422462, 0.00130072841, 0.00364203961, 0.00130072841,
          0.00468262238, 0.00234131119, 0.0119667016, 0.00520291366,
          0.00468262238, 0.00364203961, 0.00884495303, 0.00390218524,
          0.0059833508, 0.0111862645, 0.0645161271 ]
      - [ 0.116024971, 0.0101456819, 0.0127471387, 0.00728407921,
          0.0137877213, 0.00338189397, 0.00546305953, 0.00572320493,
          0.0132674295, 0.00156087405, 0.00260145683, 0.00156087405,
          0.00650364207, 0.00234131119, 0.00728407921, 0.00910509843,
          0.0101456819, 0.00234131119, 0.00104058278, 0.000260145694,
          0.00260145683, 0., 0.00156087405, 0.00130072841, 0.00728407921,
          0.00156087405, 0.00130072841, 0.000520291389, 0.0059833508,
          0.00130072841, 0.00858480763, 0.00520291366, 0.0166493244,
          0.00286160246, 0.00364203961, 0.000780437025, 0.00338189397,
          0.000520291389, 0.000260145694, 0., 0.0018210198,
          0.000520291389, 0.000260145694, 0.000520291389, 0.00156087405,
          0.000520291389, 0.00156087405, 0.000260145694, 0.0111862645,
          0.000260145694, 0.00104058278, 0.000260145694, 0.00286160246,
          0., 0.00156087405, 0.000520291389, 0.0200312175,
          0.000780437025, 0.00338189397, 0.00156087405, 0.0171696153,
          0.00130072841, 0.00806451589, 0.00442247652, 0.0153485956,
          0.00338189397, 0.00260145683, 0.00234131119, 0.00442247652,
          0.000260145694, 0.000520291389, 0.000520291389, 0.00234131119,
          0.000260145694, 0.000260145694, 0.000520291389, 0.000260145694,
          0.000780437025, 0.00156087405, 0.00130072841, 0.00286160246,
          0.000520291389, 0.000260145694, 0.00104058278, 0.000520291389,
          0.00104058278, 0.000260145694, 0.000520291389, 0.00442247652,
          0.000520291389, 0.000520291389, 0., 0.00130072841,
          0.000260145694, 0.000520291389, 0.00130072841, 0.00988553558,
          0.0031217481, 0.00104058278, 0.00208116556, 0.00130072841,
          0.000520291389, 0.000780437025, 0.000780437025, 0.00338189397,
          0.00104058278, 0.000520291389, 0.000260145694, 0.00104058278,
          0.000520291389, 0.000780437025, 0.00156087405, 0.00884495303,
          0.00104058278, 0.000260145694, 0.00156087405, 0.0031217481,
          0.000520291389, 0.000780437025, 0.00130072841, 0.0221123826,
          0.00156087405, 0.0031217481, 0.00234131119, 0.00806451589,
          0.00364203961, 0.00364203961, 0.0106659727, 0.0158688873,
          0.00884495303, 0.00572320493, 0.0187304895, 0.0018210198,
          0.00234131119, 0.000520291389, 0.0145681584, 0.00338189397,
          0.0018210198, 0.000780437025, 0.00234131119, 0.00130072841,
          0.00156087405, 0.0018210198, 0.00494276779, 0.00208116556,
          0.00156087405, 0.000780437025, 0.00156087405, 0.000780437025,
          0.000260145694, 0.000780437025, 0.00130072841, 0.0018210198,
          0.000260145694, 0.000780437025, 0.00156087405, 0.000780437025,
          0.00104058278, 0.000780437025, 0.00390218524, 0.0062434962,
          0.00234131119, 0.00156087405, 0.00416233111, 0., 0.00104058278,
          0.000260145694, 0.00156087405, 0.000780437025, 0.00130072841,
          0., 0.0018210198, 0., 0., 0.000780437025, 0.00260145683,
          0.00208116556, 0.000780437025, 0.000260145694, 0.0018210198,
          0.000260145694, 0.000520291389, 0., 0.00208116556,
          0.00286160246, 0.00104058278, 0.000780437025, 0.00858480763,
          0.00130072841, 0.00234131119, 0.00260145683, 0.00962539017,
          0.00988553558, 0.00780437049, 0.00156087405, 0.0221123826,
          0.00156087405, 0.0018210198, 0.0018210198, 0.0104058273,
          0.000260145694, 0.000780437025, 0.000520291389, 0.0018210198,
          0.00104058278, 0.000780437025, 0.00130072841, 0.00234131119,
          0.00416233111, 0.00130072841, 0., 0.00130072841,
          0.000260145694, 0.000260145694, 0.000260145694, 0.0018210198,
          0.000780437025, 0.000780437025, 0.000780437025, 0.000260145694,
          0.0018210198, 0.00208116556, 0., 0.00520291366, 0.0148283038,
          0.0143080121, 0.00286160246, 0.00754422462, 0.0018210198,
          0.00104058278, 0.00104058278, 0.00390218524, 0.0031217481,
          0.000520291389, 0.000520291389, 0.000520291389, 0.00130072841,
          0.00104058278, 0.00156087405, 0.0062434962, 0.0153485956,
          0.00702393334, 0.000780437025, 0.00546305953, 0.00208116556,
          0.00208116556, 0.000520291389, 0.00520291366, 0.00702393334,
          0.00494276779, 0.00338189397, 0.0158688873, 0.00572320493,
          0.00988553558, 0.00936524477, 0.0554110296 ]
      - [ 0.164932355, 0.0197710712, 0.0117065553, 0.0031217481,
          0.0109261191, 0.00468262238, 0.00104058278, 0.00156087405,
          0.0135275759, 0.00338189397, 0.00338189397, 0.000260145694,
          0.00286160246, 0.000780437025, 0.00260145683, 0.00286160246,
          0.0228928197, 0.00286160246, 0.0059833508, 0.000780437025,
          0.00208116556, 0.0018210198, 0.00442247652, 0.000260145694,
          0.00728407921, 0.00208116556, 0.00130072841, 0.0018210198,
          0.00260145683, 0.000520291389, 0.0228928197, 0.00234131119,
          0.0179500524, 0.00494276779, 0.00208116556, 0.00104058278,
          0.0031217481, 0.0018210198, 0.000520291389, 0.000260145694,
          0.00546305953, 0.0018210198, 0.000780437025, 0.000520291389,
          0.00442247652, 0.000780437025, 0.00104058278, 0.00104058278,
          0.00260145683, 0.00104058278, 0.000780437025, 0.000780437025,
          0.00338189397, 0.000780437025, 0.00130072841, 0.,
          0.00130072841, 0.00156087405, 0.00104058278, 0.00156087405,
          0.0231529661, 0.000520291389, 0.00208116556, 0.000780437025,
          0.0135275759, 0.0031217481, 0.00520291366, 0.00286160246,
          0.00286160246, 0.00156087405, 0.000780437025, 0.000260145694,
          0.00234131119, 0.000780437025, 0.00130072841, 0.000260145694,
          0.0018210198, 0.000520291389, 0.000780437025, 0.000260145694,
          0.00130072841, 0.00234131119, 0.00260145683, 0.00130072841,
          0.00130072841, 0.00104058278, 0.000780437025, 0.00130072841,
          0.0018210198, 0.00130072841, 0.0018210198, 0.00494276779, 0.,
          0.00208116556, 0.000260145694, 0.00234131119, 0.0031217481,
          0.00442247652, 0.0018210198, 0.00130072841, 0.000520291389,
          0.000520291389, 0.000260145694, 0.000780437025, 0.00130072841,
          0.000520291389, 0.000520291389, 0.000780437025, 0.00156087405,
          0.0031217481, 0.00208116556, 0.0031217481, 0.00130072841,
          0.000260145694, 0.000260145694, 0., 0.000520291389,
          0.000520291389, 0.000520291389, 0.00234131119, 0.00338189397,
          0.000520291389, 0.000780437025, 0.00364203961, 0.00104058278,
          0.00234131119, 0.0018210198, 0.0150884492, 0.0150884492,
          0.00468262238, 0.00286160246, 0.00156087405, 0.00260145683,
          0.000520291389, 0.00104058278, 0.00286160246, 0.00260145683,
          0.0018210198, 0.0018210198, 0.000520291389, 0.0031217481,
          0.00104058278, 0.00130072841, 0.0018210198, 0.00208116556,
          0.00260145683, 0.000780437025, 0.000520291389, 0.00130072841,
          0.00104058278, 0.000520291389, 0.000520291389, 0.00130072841,
          0.00234131119, 0.00208116556, 0.00104058278, 0.00130072841,
          0.000520291389, 0.00338189397, 0.000260145694, 0.00390218524,
          0.0018210198, 0.000520291389, 0.00104058278, 0.00104058278,
          0.000780437025, 0.00104058278, 0.000780437025, 0.00416233111,
          0.00130072841, 0.000780437025, 0.00104058278, 0.00260145683,
          0.000520291389, 0.00104058278, 0.00104058278, 0.00130072841,
          0.0031217481, 0., 0.00130072841, 0.000520291389, 0.00468262238,
          0.00208116556, 0.00442247652, 0.000780437025, 0.0018210198,
          0.00104058278, 0.0059833508, 0.00338189397, 0.00546305953,
          0.00156087405, 0.0062434962, 0.00468262238, 0.0031217481,
          0.00338189397, 0.024453694, 0.000520291389, 0.000260145694,
          0.0031217481, 0.0018210198, 0.00208116556, 0.00104058278,
          0.00208116556, 0.00390218524, 0.0018210198, 0., 0.0031217481,
          0.00104058278, 0.00130072841, 0.000780437025, 0.000780437025,
          0.000520291389, 0.000780437025, 0.000520291389, 0.000780437025,
          0.00208116556, 0.000260145694, 0.00104058278, 0.00156087405,
          0.00468262238, 0.000260145694, 0.00156087405, 0.00442247652,
          0.00546305953, 0.00546305953, 0.0330385007, 0.00156087405,
          0.00468262238, 0.000780437025, 0.000780437025, 0.0018210198,
          0.00260145683, 0.000520291389, 0.00442247652, 0.0018210198,
          0.00156087405, 0.00208116556, 0.00546305953, 0.00572320493,
          0.0104058273, 0.00468262238, 0.0031217481, 0.00156087405,
          0.0018210198, 0.00130072841, 0.00338189397, 0.00338189397,
          0.0148283038, 0.00156087405, 0.000780437025, 0.00104058278,
          0.0059833508, 0.000520291389, 0.00702393334, 0.012226847,
          0.0923517197 ]
      - [ 0.109521329, 0.0137877213, 0.0171696153, 0.0104058273,
          0.0111862645, 0.00156087405, 0.00910509843, 0.0111862645,
          0.0153485956, 0.00286160246, 0.00156087405, 0.00104058278,
          0.0101456819, 0.00338189397, 0.012226847, 0.0174297616,
          0.0137877213, 0.00104058278, 0.00286160246, 0.00104058278,
          0.00416233111, 0.000260145694, 0.00260145683, 0.00156087405,
          0.00702393334, 0.00104058278, 0.000780437025, 0.0018210198,
          0.00702393334, 0.000520291389, 0.0145681584, 0.00572320493,
          0.0114464099, 0.00286160246, 0.0018210198, 0.00130072841,
          0.00208116556, 0.000780437025, 0.00234131119, 0.00208116556,
          0.00260145683, 0.00156087405, 0.000260145694, 0.000780437025,
          0.000780437025, 0.000520291389, 0.0018210198, 0.00208116556,
          0.00806451589, 0.00208116556, 0.00208116556, 0.000780437025,
          0.0018210198, 0.000780437025, 0.00104058278, 0.00156087405,
          0.00884495303, 0.00156087405, 0.00156087405, 0.00130072841,
          0.00988553558, 0.00104058278, 0.00520291366, 0.00468262238,
          0.012226847, 0.0031217481, 0.00338189397, 0.00234131119,
          0.00260145683, 0.00130072841, 0.00156087405, 0.00104058278,
          0.00416233111, 0.000520291389, 0.000520291389, 0.000520291389,
          0.0018210198, 0.00234131119, 0.0018210198, 0.00260145683,
          0.00338189397, 0.000780437025, 0.000260145694, 0.,
          0.000780437025, 0., 0.000260145694, 0.000520291389,
          0.00234131119, 0.000260145694, 0.000260145694, 0.,
          0.00130072841, 0.000780437025, 0.00104058278, 0.00104058278,
          0.00806451589, 0.0018210198, 0.00104058278, 0.00130072841,
          0.000520291389, 0.00104058278, 0.0018210198, 0.00156087405,
          0.0018210198, 0.000780437025, 0.000520291389, 0.000520291389,
          0.000780437025, 0.00104058278, 0.0018210198, 0.00364203961,
          0.00832466222, 0.000780437025, 0.00208116556, 0.00130072841,
          0.00234131119, 0.000260145694, 0.00130072841, 0.000780437025,
          0.012226847, 0.0018210198, 0.000780437025, 0.00156087405,
          0.00546305953, 0.00208116556, 0.00572320493, 0.00936524477,
          0.0114464099, 0.00858480763, 0.0031217481, 0.00910509843,
          0.00234131119, 0.00260145683, 0.00156087405, 0.0130072841,
          0.00208116556, 0.00208116556, 0.000260145694, 0.00130072841,
          0.00130072841, 0.00130072841, 0.00130072841, 0.00858480763,
          0.0018210198, 0.000520291389, 0.00208116556, 0.000260145694,
          0.000780437025, 0., 0.000520291389, 0.00286160246,
          0.00130072841, 0.0031217481, 0.00104058278, 0.000780437025,
          0.000520291389, 0.00104058278, 0.00338189397, 0.0059833508,
          0.00156087405, 0.00234131119, 0.000520291389, 0.0018210198,
          0.000260145694, 0., 0.000260145694, 0.0018210198, 0.,
          0.00104058278, 0.000260145694, 0.00104058278, 0.00104058278,
          0.000260145694, 0., 0.00260145683, 0.00104058278,
          0.00104058278, 0.000780437025, 0.00234131119, 0.,
          0.000260145694, 0.000520291389, 0.00260145683, 0.00208116556,
          0.00156087405, 0.000260145694, 0.00234131119, 0.0018210198,
          0.00208116556, 0.00260145683, 0.00962539017, 0.00728407921,
          0.00702393334, 0.00156087405, 0.0106659727, 0.00208116556,
          0.00104058278, 0.00104058278, 0.00650364207, 0.00130072841,
          0.00156087405, 0.000260145694, 0.00364203961, 0.00156087405,
          0.0018210198, 0.00208116556, 0.00676378794, 0.00208116556,
          0.00104058278, 0.00104058278, 0.00156087405, 0.00208116556,
          0.000260145694, 0.000520291389, 0.00338189397, 0.00104058278,
          0.00104058278, 0.000780437025, 0.00130072841, 0.000520291389,
          0.00104058278, 0.0018210198, 0.0109261191, 0.0059833508,
          0.0143080121, 0.0018210198, 0.0059833508, 0.00104058278,
          0.0018210198, 0.00104058278, 0.00650364207, 0.000520291389,
          0.00260145683, 0.00130072841, 0.00260145683, 0.00234131119,
          0.0018210198, 0.00520291366, 0.015608741, 0.0163891781,
          0.00780437049, 0.00468262238, 0.0059833508, 0.00104058278,
          0.00208116556, 0.0018210198, 0.0104058273, 0.00702393334,
          0.00520291366, 0.00416233111, 0.0101456819, 0.00728407921,
          0.00702393334, 0.0130072841, 0.0567117594 ]
      - [ 0.0913111344, 0.0143080121, 0.00988553558, 0.00754422462,
          0.0104058273, 0.00130072841, 0.00572320493, 0.00832466222,
          0.0101456819, 0.00104058278, 0.00130072841, 0.0018210198,
          0.00884495303, 0.00130072841, 0.018990634, 0.0447450578,
          0.0140478667, 0.0018210198, 0.0031217481, 0.000520291389,
          0.000780437025, 0., 0.00338189397, 0.00104058278,
          0.00806451589, 0.000780437025, 0.000780437025, 0.000520291389,
          0.0140478667, 0., 0.0429240391, 0.0059833508, 0.0104058273,
          0.0018210198, 0.00156087405, 0.00130072841, 0.00130072841,
          0.000260145694, 0.00156087405, 0.00104058278, 0.00234131119,
          0., 0.000260145694, 0.000780437025, 0.000780437025, 0.,
          0.00156087405, 0.00208116556, 0.00780437049, 0.000520291389,
          0.00156087405, 0.000260145694, 0.00104058278, 0.,
          0.00156087405, 0.000780437025, 0.0179500524, 0.000780437025,
          0.000260145694, 0.00104058278, 0.0366805419, 0.000520291389,
          0.00988553558, 0.00208116556, 0.00676378794, 0.00208116556,
          0.00104058278, 0.00286160246, 0.00130072841, 0.,
          0.000260145694, 0.000780437025, 0.00104058278, 0.,
          0.000520291389, 0., 0.000780437025, 0.000260145694,
          0.00130072841, 0.000780437025, 0.00104058278, 0., 0., 0.,
          0.000260145694, 0.000260145694, 0.000260145694, 0.,
          0.000260145694, 0.000260145694, 0.000260145694, 0.,
          0.00104058278, 0., 0.000780437025, 0.000260145694,
          0.00754422462, 0.00364203961, 0.00156087405, 0.000780437025,
          0.000780437025, 0.000520291389, 0.000780437025, 0.000260145694,
          0.00104058278, 0., 0., 0.000520291389, 0.00104058278, 0.,
          0.00156087405, 0.00130072841, 0.0109261191, 0.000520291389,
          0.000260145694, 0.000260145694, 0.000260145694, 0.000260145694,
          0.000780437025, 0.000520291389, 0.0286160242, 0.000520291389,
          0.00130072841, 0.000260145694, 0.00962539017, 0.00104058278,
          0.00546305953, 0.00468262238, 0.0106659727, 0.00702393334,
          0.00234131119, 0.012226847, 0.0018210198, 0.00260145683,
          0.00156087405, 0.0226326734, 0.0018210198, 0.00156087405, 0.,
          0.00156087405, 0.00156087405, 0.00130072841, 0.00130072841,
          0.00910509843, 0.00208116556, 0.00156087405, 0.,
          0.000780437025, 0., 0.000260145694, 0., 0.00130072841,
          0.000780437025, 0.000260145694, 0., 0.000520291389,
          0.000780437025, 0.000780437025, 0.00156087405, 0.00546305953,
          0.00260145683, 0.00156087405, 0.000780437025, 0.0018210198, 0.,
          0.000520291389, 0., 0.00130072841, 0., 0., 0., 0.000780437025,
          0.000520291389, 0., 0.000780437025, 0.000780437025,
          0.00156087405, 0.000260145694, 0., 0.00104058278,
          0.000260145694, 0., 0.000260145694, 0.000260145694,
          0.00104058278, 0.000520291389, 0.000520291389, 0.000520291389,
          0.000780437025, 0.000520291389, 0.000520291389, 0.0018210198,
          0.00832466222, 0.00962539017, 0.00156087405, 0.0257544219,
          0.000260145694, 0.000520291389, 0.00104058278, 0.00728407921,
          0.00130072841, 0.00130072841, 0.000260145694, 0.00104058278,
          0.000260145694, 0.000260145694, 0.0018210198, 0.00520291366,
          0.000780437025, 0.000780437025, 0.000520291389, 0.000520291389,
          0., 0., 0., 0.000520291389, 0.000780437025, 0.000260145694, 0.,
          0.000780437025, 0.000780437025, 0.000260145694, 0.00156087405,
          0.00260145683, 0.0213319454, 0.0499479696, 0.00156087405,
          0.0117065553, 0.000780437025, 0.000260145694, 0.0018210198,
          0.00468262238, 0.0031217481, 0.00156087405, 0.000260145694,
          0.0031217481, 0.00390218524, 0.0018210198, 0.0018210198,
          0.00754422462, 0.0411030166, 0.0109261191, 0.00130072841,
          0.00520291366, 0.000520291389, 0.00130072841, 0.00130072841,
          0.00390218524, 0.0109261191, 0.00468262238, 0.00234131119,
          0.00494276779, 0.00676378794, 0.0031217481, 0.0104058273,
          0.027835587 ]
      - [ 0.537721097, 0.0119667016, 0.0176899061, 0.00416233111,
          0.0148283038, 0.000520291389, 0.00546305953, 0.00156087405,
          0.021071801, 0.000780437025, 0.0018210198, 0., 0.00442247652,
          0.000520291389, 0.00130072841, 0.0101456819, 0.012226847,
          0.000520291389, 0.000260145694, 0., 0.00104058278, 0.,
          0.000260145694, 0., 0.00390218524, 0., 0.000520291389, 0.,
          0.0018210198, 0., 0.00962539017, 0.00104058278, 0.0158688873,
          0.000780437025, 0.000780437025, 0.000780437025, 0.000260145694,
          0., 0., 0.000260145694, 0.00156087405, 0., 0.000520291389, 0.,
          0.000260145694, 0., 0.000260145694, 0.000520291389,
          0.00546305953, 0., 0.000520291389, 0., 0., 0., 0., 0.,
          0.00520291366, 0.000520291389, 0.000520291389, 0.000260145694,
          0.0150884492, 0., 0.0018210198, 0.000520291389, 0.0117065553,
          0.000520291389, 0.000780437025, 0.000520291389, 0.000780437025,
          0., 0., 0.000260145694, 0.000260145694, 0., 0., 0.,
          0.000260145694, 0., 0.000260145694, 0., 0.000520291389, 0.,
          0.000260145694, 0., 0., 0., 0., 0., 0., 0., 0., 0., 0., 0., 0.,
          0., 0.00390218524, 0., 0., 0., 0.000260145694, 0., 0., 0.,
          0.000260145694, 0., 0., 0.000260145694, 0., 0., 0.,
          0.00104058278, 0.00156087405, 0., 0., 0., 0., 0., 0.,
          0.000780437025, 0.0143080121, 0., 0., 0.000260145694,
          0.00286160246, 0.000260145694, 0.000520291389, 0.00338189397,
          0.0179500524, 0.00416233111, 0.00260145683, 0.00468262238,
          0.00130072841, 0.000260145694, 0., 0.0176899061, 0.00104058278,
          0.000260145694, 0.000260145694, 0.000260145694, 0.,
          0.000260145694, 0.000260145694, 0.0018210198, 0.000520291389,
          0.000520291389, 0., 0.000260145694, 0., 0.000260145694, 0.,
          0.000260145694, 0.000520291389, 0.000260145694, 0.,
          0.000520291389, 0.000260145694, 0., 0., 0.00286160246,
          0.00156087405, 0.000260145694, 0.000260145694, 0.000260145694,
          0., 0., 0.000780437025, 0., 0., 0., 0., 0., 0., 0., 0.,
          0.000520291389, 0.000520291389, 0.000260145694, 0.000260145694,
          0.000520291389, 0., 0.000260145694, 0., 0.000520291389,
          0.000260145694, 0., 0.000260145694, 0.00442247652,
          0.000520291389, 0.00208116556, 0.000780437025, 0.00910509843,
          0.00390218524, 0.00546305953, 0., 0.0221123826, 0.,
          0.000260145694, 0., 0.00416233111, 0., 0., 0.000520291389,
          0.000780437025, 0., 0., 0.000260145694, 0.00156087405,
          0.000260145694, 0., 0., 0.000520291389, 0., 0.000260145694, 0.,
          0.000260145694, 0., 0.000260145694, 0., 0.00130072841,
          0.000520291389, 0.000780437025, 0.000780437025, 0.00260145683,
          0.00234131119, 0.0145681584, 0.000260145694, 0.00572320493, 0.,
          0., 0.000260145694, 0.00130072841, 0.000520291389,
          0.000260145694, 0., 0.00156087405, 0.000260145694,
          0.000780437025, 0.00234131119, 0.0059833508, 0.0109261191,
          0.0031217481, 0., 0.00156087405, 0.000260145694,
          0.000260145694, 0.000520291389, 0.00338189397, 0.00208116556,
          0.000780437025, 0.000520291389, 0.0109261191, 0.00130072841,
          0.00390218524, 0.00546305953, 0.0270551518 ]
      - [ 0.0894901156, 0.0114464099, 0.00910509843, 0.00650364207,
          0.0140478667, 0.00208116556, 0.0124869924, 0.0130072841,
          0.0114464099, 0.000780437025, 0.00286160246, 0.00130072841,
          0.0104058273, 0.00156087405, 0.0361602493, 0.0236732569,
          0.0104058273, 0.00234131119, 0.00130072841, 0.0018210198,
          0.00156087405, 0.000260145694, 0.000520291389, 0.000780437025,
          0.0109261191, 0.000780437025, 0.00156087405, 0.00156087405,
          0.0109261191, 0.000780437025, 0.024453694, 0.00858480763,
          0.0124869924, 0.000780437025, 0.000520291389, 0.000780437025,
          0.00156087405, 0.000260145694, 0.000780437025, 0.00104058278,
          0.00260145683, 0., 0.000520291389, 0.000260145694,
          0.0018210198, 0., 0.00234131119, 0.00130072841, 0.0132674295,
          0.00104058278, 0.000780437025, 0.000520291389, 0.00104058278,
          0.000260145694, 0.000780437025, 0.000520291389, 0.0304370448,
          0.00130072841, 0.00156087405, 0.000260145694, 0.0374609791,
          0.00104058278, 0.0119667016, 0.00468262238, 0.0140478667,
          0.00130072841, 0.00234131119, 0.000780437025, 0.0018210198,
          0.000520291389, 0.000780437025, 0.000780437025, 0.00156087405,
          0.000260145694, 0.000260145694, 0., 0.000780437025,
          0.000520291389, 0.00260145683, 0.000260145694, 0.0018210198,
          0.000260145694, 0.000260145694, 0., 0.000260145694,
          0.000260145694, 0., 0.000260145694, 0.00208116556,
          0.000260145694, 0.000520291389, 0., 0.00130072841,
          0.000520291389, 0.000520291389, 0.00130072841, 0.0119667016,
          0.0018210198, 0.0018210198, 0.000260145694, 0.000260145694,
          0.000260145694, 0.000260145694, 0.000780437025, 0.00130072841,
          0.000520291389, 0., 0.00104058278, 0.00130072841, 0.,
          0.00130072841, 0.00130072841, 0.00728407921, 0.000780437025,
          0.000520291389, 0.00104058278, 0.0018210198, 0.000260145694,
          0.000520291389, 0.000780437025, 0.034079086, 0.000780437025,
          0.00156087405, 0.000520291389, 0.00546305953, 0.00104058278,
          0.00442247652, 0.0031217481, 0.00832466222, 0.00442247652,
          0.0018210198, 0.0104058273, 0.00260145683, 0.00104058278,
          0.00156087405, 0.0273152962, 0.00104058278, 0.000780437025, 0.,
          0.00208116556, 0.00234131119, 0.000260145694, 0.00130072841,
          0.0104058273, 0.00104058278, 0.000780437025, 0.,
          0.000520291389, 0., 0.000260145694, 0.000780437025,
          0.00130072841, 0.000520291389, 0.000260145694, 0.000260145694,
          0.00156087405, 0.000780437025, 0., 0.000520291389,
          0.00338189397, 0.00286160246, 0.0018210198, 0.000520291389,
          0.00130072841, 0.000780437025, 0.000260145694, 0.,
          0.00208116556, 0., 0., 0.000520291389, 0., 0., 0.000520291389,
          0.000780437025, 0.00130072841, 0.00130072841, 0.00156087405,
          0., 0.00130072841, 0.000260145694, 0.000260145694,
          0.000260145694, 0.00130072841, 0.00130072841, 0.00130072841,
          0., 0.00260145683, 0.00130072841, 0.0018210198, 0.00234131119,
          0.00676378794, 0.00702393334, 0.00546305953, 0.00130072841,
          0.0359001048, 0.00156087405, 0.00130072841, 0.00104058278,
          0.00650364207, 0.00130072841, 0.00104058278, 0.000260145694,
          0.00208116556, 0., 0.000260145694, 0.00208116556,
          0.00286160246, 0.00104058278, 0.00104058278, 0., 0.00130072841,
          0., 0.000260145694, 0., 0.00130072841, 0.00104058278,
          0.000260145694, 0.000520291389, 0.00130072841, 0.000260145694,
          0.00104058278, 0.00104058278, 0.00338189397, 0.0241935477,
          0.0200312175, 0.00156087405, 0.0114464099, 0.000520291389,
          0.000520291389, 0.00104058278, 0.00338189397, 0.00130072841,
          0.00130072841, 0.000260145694, 0.000520291389, 0.000780437025,
          0.000260145694, 0.00702393334, 0.0059833508, 0.0280957334,
          0.0062434962, 0.000780437025, 0.00494276779, 0.00234131119,
          0.00130072841, 0.000520291389, 0.00364203961, 0.0161290318,
          0.0059833508, 0.00130072841, 0.00858480763, 0.00702393334,
          0.00572320493, 0.00702393334, 0.0270551518 ]
      - [ 0.504422486, 0.0018210198, 0.00728407921, 0.00442247652,
          0.00442247652, 0.000780437025, 0.00338189397, 0.00676378794,
          0.00416233111, 0.00130072841, 0.00286160246, 0.00104058278,
          0.0031217481, 0.00104058278, 0.00728407921, 0.0127471387,
          0.00338189397, 0.000780437025, 0.000780437025, 0.,
          0.000260145694, 0., 0.000260145694, 0.0018210198,
          0.00442247652, 0.000520291389, 0.000520291389, 0.000520291389,
          0.00416233111, 0., 0.0104058273, 0.00390218524, 0.00728407921,
          0.000520291389, 0.00208116556, 0.000520291389, 0.000260145694,
          0.000260145694, 0.000520291389, 0.000520291389, 0.00286160246,
          0., 0.000260145694, 0., 0.0018210198, 0.000260145694,
          0.00104058278, 0.00104058278, 0.00416233111, 0.000260145694,
          0.000520291389, 0.000520291389, 0., 0.000260145694,
          0.000520291389, 0.000780437025, 0.00702393334, 0.000260145694,
          0.000520291389, 0.000260145694, 0.0101456819, 0.00130072841,
          0.00416233111, 0.00208116556, 0.00338189397, 0.00104058278,
          0.000520291389, 0.00104058278, 0.000780437025, 0.,
          0.00104058278, 0.000780437025, 0.000520291389, 0.,
          0.000260145694, 0., 0.000260145694, 0., 0.000520291389,
          0.000520291389, 0.000520291389, 0.000260145694, 0., 0.,
          0.000260145694, 0., 0.000260145694, 0.000260145694,
          0.000260145694, 0., 0., 0., 0., 0., 0.000520291389,
          0.000520291389, 0.00494276779, 0.00104058278, 0.000520291389,
          0., 0., 0., 0.000260145694, 0.000260145694, 0.000260145694, 0.,
          0., 0., 0.000520291389, 0., 0.000260145694, 0.000520291389,
          0.00468262238, 0., 0.000260145694, 0.000520291389,
          0.000780437025, 0.000520291389, 0., 0.000520291389,
          0.0169094689, 0.000260145694, 0.000520291389, 0.00156087405,
          0.00494276779, 0.00104058278, 0.00338189397, 0.0059833508,
          0.00572320493, 0.00364203961, 0.00208116556, 0.0109261191,
          0.00104058278, 0.000780437025, 0.00104058278, 0.0208116546,
          0.000780437025, 0.00104058278, 0.000260145694, 0.00156087405,
          0.000520291389, 0.000260145694, 0.00104058278, 0.00728407921,
          0.000780437025, 0., 0., 0.000520291389, 0., 0., 0.,
          0.000520291389, 0.000520291389, 0.000260145694, 0.000260145694,
          0.000260145694, 0., 0.00104058278, 0.00156087405, 0.0018210198,
          0.00208116556, 0.00156087405, 0., 0.00104058278,
          0.000260145694, 0., 0., 0.00104058278, 0.00130072841, 0.,
          0.000260145694, 0.000520291389, 0., 0.000260145694,
          0.000520291389, 0.00130072841, 0.00104058278, 0., 0.,
          0.00104058278, 0., 0., 0., 0.00104058278, 0., 0.000260145694,
          0.000520291389, 0.0018210198, 0.000780437025, 0.00130072841,
          0.00104058278, 0.00702393334, 0.00390218524, 0.00416233111,
          0.0018210198, 0.0143080121, 0.000260145694, 0.000520291389,
          0.00104058278, 0.00494276779, 0.000780437025, 0.000260145694,
          0., 0.00104058278, 0.000520291389, 0.000260145694,
          0.000260145694, 0.0031217481, 0., 0.000780437025,
          0.000260145694, 0.000260145694, 0., 0.000260145694,
          0.000260145694, 0.00208116556, 0., 0.000260145694,
          0.000520291389, 0.000520291389, 0., 0.000260145694,
          0.00104058278, 0.0031217481, 0.00806451589, 0.0150884492,
          0.00104058278, 0.00442247652, 0.000520291389, 0.000780437025,
          0.000520291389, 0.00234131119, 0.00130072841, 0.000520291389,
          0., 0.00130072841, 0.000520291389, 0.00104058278,
          0.00156087405, 0.0031217481, 0.0171696153, 0.00468262238,
          0.000780437025, 0.0031217481, 0.000780437025, 0.00130072841,
          0.000260145694, 0.00754422462, 0.0062434962, 0.0031217481,
          0.00208116556, 0.00754422462, 0.00156087405, 0.00260145683,
          0.00286160246, 0.0424037464 ]
      - [ 0.501040578, 0.00442247652, 0.00650364207, 0.00286160246,
          0.00494276779, 0., 0.00390218524, 0.0031217481, 0.0101456819,
          0.000260145694, 0.00156087405, 0.000520291389, 0.00650364207,
          0.000260145694, 0.0163891781, 0.00858480763, 0.00650364207,
          0.000780437025, 0.000780437025, 0.000520291389, 0.000260145694,
          0., 0.000260145694, 0.000260145694, 0.00442247652, 0.,
          0.000780437025, 0., 0.00286160246, 0.000260145694,
          0.0221123826, 0.0059833508, 0.00806451589, 0.000780437025,
          0.000520291389, 0., 0.000520291389, 0., 0., 0., 0.00130072841,
          0., 0., 0., 0.000780437025, 0., 0.00104058278, 0.000520291389,
          0.00234131119, 0.000260145694, 0., 0., 0.000780437025, 0.,
          0.000260145694, 0., 0.00676378794, 0.000260145694,
          0.000520291389, 0., 0.0236732569, 0.000260145694,
          0.00676378794, 0.00104058278, 0.00442247652, 0.,
          0.000780437025, 0.000780437025, 0.00208116556, 0.,
          0.000260145694, 0.000520291389, 0.000260145694, 0., 0., 0.,
          0.000260145694, 0., 0.000780437025, 0.000260145694, 0., 0., 0.,
          0., 0., 0., 0., 0., 0., 0., 0., 0., 0.000260145694, 0.,
          0.000520291389, 0.000260145694, 0.0031217481, 0.000520291389,
          0.000520291389, 0.000520291389, 0.000520291389, 0., 0., 0.,
          0.00104058278, 0., 0., 0., 0., 0., 0., 0.000780437025,
          0.00234131119, 0., 0., 0., 0.000260145694, 0., 0.,
          0.000520291389, 0.00442247652, 0.000260145694, 0.000260145694,
          0.000780437025, 0.00338189397, 0., 0.00130072841,
          0.00234131119, 0.00806451589, 0.00364203961, 0.00208116556,
          0.00858480763, 0.000520291389, 0.000260145694, 0.,
          0.0031217481, 0.00104058278, 0., 0., 0.00104058278,
          0.000260145694, 0., 0.000260145694, 0.00468262238,
          0.000260145694, 0.000780437025, 0., 0., 0., 0.000260145694, 0.,
          0., 0.000260145694, 0., 0.000260145694, 0.000260145694, 0., 0.,
          0.000520291389, 0.00442247652, 0.00208116556, 0.000520291389,
          0., 0.000260145694, 0., 0., 0.000260145694, 0., 0.000260145694,
          0., 0.000260145694, 0.000260145694, 0.000260145694, 0., 0.,
          0.000520291389, 0., 0., 0., 0.000260145694, 0., 0.000260145694,
          0.000260145694, 0.000260145694, 0., 0.000520291389, 0.,
          0.00572320493, 0.00130072841, 0.000520291389, 0.000520291389,
          0.00988553558, 0.00364203961, 0.00286160246, 0.000260145694,
          0.0325182118, 0.00130072841, 0.000260145694, 0.000260145694,
          0.00390218524, 0.000260145694, 0.000260145694, 0.000260145694,
          0.00104058278, 0., 0.000260145694, 0.000260145694,
          0.00338189397, 0., 0.000260145694, 0., 0., 0., 0., 0., 0.,
          0.000260145694, 0.000520291389, 0., 0.000520291389, 0., 0.,
          0.000520291389, 0.00156087405, 0.0143080121, 0.0283558797,
          0.00130072841, 0.00754422462, 0.00156087405, 0.,
          0.000260145694, 0.00130072841, 0.00156087405, 0.00104058278,
          0.000260145694, 0.000520291389, 0.00104058278, 0.0018210198,
          0.0101456819, 0.0132674295, 0.00832466222, 0.00728407921, 0.,
          0.000780437025, 0.000260145694, 0.000260145694, 0.,
          0.00260145683, 0.00390218524, 0.00208116556, 0.000260145694,
          0.00650364207, 0.00234131119, 0.0031217481, 0.0132674295,
          0.037981268 ]
      - [ 0.125910506, 0.0200312175, 0.0179500524, 0.00962539017,
          0.00962539017, 0.00416233111, 0.00910509843, 0.00858480763,
          0.0135275759, 0.00338189397, 0.00286160246, 0.0031217481,
          0.00910509843, 0.00260145683, 0.0262747146, 0.0267950054,
          0.0161290318, 0.00416233111, 0.00234131119, 0.00104058278,
          0.00156087405, 0.00104058278, 0.00260145683, 0.00130072841,
          0.00520291366, 0.00156087405, 0.000780437025, 0.00104058278,
          0.00520291366, 0.00234131119, 0.0221123826, 0.00936524477,
          0.00936524477, 0.00260145683, 0.00338189397, 0.00208116556,
          0.00104058278, 0.000780437025, 0.000520291389, 0.00156087405,
          0.00234131119, 0.00104058278, 0., 0.000260145694,
          0.000260145694, 0.00104058278, 0.00338189397, 0.00286160246,
          0.00546305953, 0.00156087405, 0.00130072841, 0.00104058278,
          0.00156087405, 0.000780437025, 0.000780437025, 0.00156087405,
          0.00364203961, 0.000520291389, 0.000260145694, 0.00130072841,
          0.00910509843, 0.00130072841, 0.0059833508, 0.0031217481,
          0.0104058273, 0.000780437025, 0.00286160246, 0.00286160246,
          0.000520291389, 0.000260145694, 0.000780437025, 0.000520291389,
          0.00208116556, 0.000780437025, 0.000260145694, 0.000780437025,
          0.00104058278, 0.000520291389, 0.00104058278, 0.00364203961,
          0.00208116556, 0.00156087405, 0.000780437025, 0.000260145694,
          0.000260145694, 0., 0.000520291389, 0.000780437025,
          0.00130072841, 0.000520291389, 0.000780437025, 0.000260145694,
          0.00104058278, 0.000260145694, 0.000780437025, 0.00156087405,
          0.00572320493, 0.00104058278, 0.00130072841, 0.00156087405,
          0.000520291389, 0.000520291389, 0.000520291389, 0.00104058278,
          0.00130072841, 0.00104058278, 0.000520291389, 0.000780437025,
          0.000780437025, 0.000780437025, 0.00208116556, 0.00364203961,
          0.00572320493, 0.0018210198, 0.0018210198, 0.000260145694,
          0.00104058278, 0.000260145694, 0.00104058278, 0.000780437025,
          0.0124869924, 0.0018210198, 0.000260145694, 0.00130072841,
          0.00260145683, 0.00130072841, 0.00390218524, 0.00676378794,
          0.0176899061, 0.00676378794, 0.00416233111, 0.00910509843,
          0.0031217481, 0.0018210198, 0.00260145683, 0.0109261191,
          0.0018210198, 0.0018210198, 0.000780437025, 0.00156087405,
          0.00260145683, 0.00104058278, 0.00286160246, 0.00936524477,
          0.00364203961, 0.00104058278, 0.0018210198, 0.00104058278,
          0.000260145694, 0.000520291389, 0.000780437025, 0.00130072841,
          0.000780437025, 0.000520291389, 0.000520291389, 0.000520291389,
          0.000520291389, 0.00130072841, 0.00260145683, 0.0059833508,
          0.0031217481, 0.00260145683, 0.000260145694, 0.00130072841,
          0.00130072841, 0.00104058278, 0., 0.00208116556,
          0.000260145694, 0.000520291389, 0.000260145694, 0.000520291389,
          0.00104058278, 0., 0.000520291389, 0.00208116556,
          0.000780437025, 0., 0.000520291389, 0.00130072841,
          0.000260145694, 0.000520291389, 0., 0.00208116556,
          0.00156087405, 0.00156087405, 0.000260145694, 0.00104058278,
          0.000260145694, 0.00104058278, 0.00130072841, 0.0059833508,
          0.00806451589, 0.00416233111, 0.00234131119, 0.00780437049,
          0.0018210198, 0.00130072841, 0.000780437025, 0.00442247652,
          0.00104058278, 0.0018210198, 0.000520291389, 0.00130072841,
          0.000260145694, 0.000780437025, 0.00104058278, 0.00572320493,
          0.00286160246, 0.000780437025, 0.000520291389, 0.00208116556,
          0.000780437025, 0.000780437025, 0.00130072841, 0.00208116556,
          0.00104058278, 0.00130072841, 0.00130072841, 0.0018210198,
          0.00104058278, 0.00130072841, 0.00286160246, 0.00702393334,
          0.0148283038, 0.0205515083, 0.00364203961, 0.00572320493,
          0.00104058278, 0.00260145683, 0.00156087405, 0.00728407921,
          0.0031217481, 0.00130072841, 0.000520291389, 0.00208116556,
          0.000780437025, 0.00338189397, 0.00572320493, 0.0166493244,
          0.0221123826, 0.00858480763, 0.0031217481, 0.00546305953,
          0.00130072841, 0.00234131119, 0.00208116556, 0.00884495303,
          0.00520291366, 0.00338189397, 0.00208116556, 0.00910509843,
          0.0031217481, 0.00676378794, 0.0130072841, 0.0535900109 ]
      - [ 0.142039537, 0.0145681584, 0.00338189397, 0.00286160246, 0.,
          0., 0.00364203961, 0.00234131119, 0.00156087405, 0., 0., 0.,
          0.00156087405, 0., 0.210718006, 0.0809053034, 0.0182101969, 0.,
          0., 0., 0., 0., 0., 0., 0.00364203961, 0., 0., 0.,
          0.0059833508, 0., 0.0403225794, 0.000520291389, 0.0059833508,
          0.000260145694, 0., 0., 0., 0., 0., 0., 0., 0., 0., 0., 0., 0.,
          0.000260145694, 0., 0.0018210198, 0., 0., 0., 0., 0., 0., 0.,
          0., 0., 0., 0., 0.0059833508, 0., 0.00546305953, 0., 0., 0.,
          0., 0., 0., 0., 0., 0., 0., 0., 0., 0., 0., 0., 0., 0., 0., 0.,
          0., 0., 0., 0., 0., 0., 0., 0., 0., 0., 0., 0., 0., 0.,
          0.00676378794, 0., 0., 0., 0., 0., 0., 0., 0., 0., 0., 0., 0.,
          0., 0.000260145694, 0., 0.00130072841, 0., 0., 0., 0., 0., 0.,
          0., 0.000780437025, 0., 0., 0., 0.00234131119, 0.,
          0.000520291389, 0., 0.00416233111, 0.00156087405,
          0.000260145694, 0.000260145694, 0., 0., 0.000260145694, 0., 0.,
          0., 0., 0., 0., 0., 0.00416233111, 0.00390218524, 0., 0., 0.,
          0., 0., 0., 0., 0., 0., 0., 0., 0., 0., 0., 0., 0.,
          0.000260145694, 0., 0., 0., 0., 0., 0., 0., 0., 0., 0., 0., 0.,
          0., 0., 0., 0., 0., 0., 0., 0., 0., 0., 0., 0., 0., 0., 0., 0.,
          0., 0., 0., 0.00468262238, 0.00156087405, 0.000260145694,
          0.000260145694, 0., 0., 0.000260145694, 0.000260145694, 0., 0.,
          0., 0., 0., 0., 0.0018210198, 0.00416233111, 0., 0., 0., 0.,
          0., 0., 0., 0., 0., 0., 0., 0., 0., 0., 0.000260145694, 0.,
          0.240634754, 0.0254942775, 0.0018210198, 0.00234131119, 0., 0.,
          0.00286160246, 0.00156087405, 0.00364203961, 0., 0., 0.,
          0.00260145683, 0.000260145694, 0.0398022905, 0.0153485956,
          0.0517689921, 0.000520291389, 0.000260145694, 0., 0., 0., 0.,
          0., 0.00260145683, 0., 0., 0., 0.00286160246, 0., 0.0130072841,
          0.000260145694 ]
      - [ 0.0559313223, 0.0200312175, 0.0117065553, 0.0124869924,
          0.00754422462, 0.00260145683, 0.0174297616, 0.018990634,
          0.0062434962, 0.00260145683, 0.00208116556, 0.0018210198,
          0.00468262238, 0.00234131119, 0.0200312175, 0.0418834537,
          0.0119667016, 0.00208116556, 0.00260145683, 0.000780437025,
          0.0031217481, 0.000260145694, 0.0031217481, 0.000520291389,
          0.00442247652, 0.00156087405, 0.000780437025, 0.000780437025,
          0.0182101969, 0.000780437025, 0.0429240391, 0.0101456819,
          0.00546305953, 0.00156087405, 0.00208116556, 0.00260145683,
          0.00104058278, 0.000260145694, 0.00234131119, 0.00104058278,
          0.00104058278, 0.000260145694, 0.000260145694, 0.000260145694,
          0.00104058278, 0.000260145694, 0.00104058278, 0.0018210198,
          0.00910509843, 0.000260145694, 0.00130072841, 0.000260145694,
          0.00130072841, 0.000260145694, 0.0018210198, 0.000520291389,
          0.00676378794, 0.000260145694, 0.000260145694, 0.00130072841,
          0.0304370448, 0.00104058278, 0.0145681584, 0.00390218524,
          0.00494276779, 0.00156087405, 0.00104058278, 0.00234131119,
          0.000780437025, 0., 0.00104058278, 0.00104058278,
          0.000520291389, 0., 0., 0., 0.00156087405, 0., 0.000780437025,
          0.00130072841, 0.000520291389, 0., 0., 0.000260145694, 0.,
          0.000260145694, 0., 0.000260145694, 0.000520291389,
          0.000260145694, 0., 0., 0.00130072841, 0., 0.00104058278,
          0.00130072841, 0.00702393334, 0.0018210198, 0.000780437025,
          0.00260145683, 0.000520291389, 0.000260145694, 0.000260145694,
          0.00156087405, 0.000260145694, 0.000260145694, 0., 0.,
          0.000780437025, 0.000260145694, 0.00104058278, 0.00234131119,
          0.0109261191, 0.000520291389, 0.000520291389, 0.00104058278,
          0.000520291389, 0.000260145694, 0.000780437025, 0.000520291389,
          0.0205515083, 0., 0.000780437025, 0.000520291389,
          0.00728407921, 0., 0.00338189397, 0.00338189397, 0.00572320493,
          0.00572320493, 0.00104058278, 0.0106659727, 0.000780437025,
          0.0018210198, 0.0018210198, 0.0252341311, 0.00104058278,
          0.00156087405, 0., 0.00208116556, 0.00130072841, 0.00156087405,
          0.00234131119, 0.015608741, 0.000780437025, 0.00156087405,
          0.000260145694, 0.000780437025, 0.000260145694, 0.,
          0.000520291389, 0.000780437025, 0.000780437025, 0.000780437025,
          0., 0.00104058278, 0.00234131119, 0.000780437025,
          0.00390218524, 0.0104058273, 0.000780437025, 0.000780437025,
          0., 0.000260145694, 0.000260145694, 0.000260145694,
          0.000780437025, 0.00234131119, 0.000520291389, 0.,
          0.000260145694, 0.00104058278, 0., 0.000260145694,
          0.000260145694, 0.000780437025, 0.000780437025, 0.000520291389,
          0.000260145694, 0., 0., 0.000520291389, 0.000260145694,
          0.000780437025, 0.00104058278, 0., 0., 0.0018210198,
          0.00130072841, 0.00104058278, 0.00286160246, 0.00702393334,
          0.00546305953, 0.0143080121, 0.000260145694, 0.0353798121,
          0.00130072841, 0., 0.0018210198, 0.0104058273, 0.000780437025,
          0.00208116556, 0.000260145694, 0.00156087405, 0.00104058278,
          0.00156087405, 0.000520291389, 0.00832466222, 0.00208116556,
          0.000520291389, 0., 0.00234131119, 0., 0.000520291389,
          0.000260145694, 0.000780437025, 0.000520291389, 0.00104058278,
          0., 0.00104058278, 0.00104058278, 0.00130072841, 0.00390218524,
          0.00546305953, 0.012226847, 0.046826221, 0.00156087405,
          0.0117065553, 0.000780437025, 0.0018210198, 0.000780437025,
          0.00572320493, 0.000780437025, 0.00208116556, 0., 0.0018210198,
          0.000260145694, 0.0018210198, 0.0031217481, 0.0163891781,
          0.0314776264, 0.00962539017, 0.00260145683, 0.0059833508,
          0.000520291389, 0.000260145694, 0.0018210198, 0.00494276779,
